svm_type c_svc
kernel_type linear
nr_class 2
total_sv 297
rho -1.1624707095500089
label 1 -1
nr_sv 157 140
SV
0.045952683119095956 152:0.035294118 153:0.51372549 154:0.60392157 155:0.76862745 156:0.99607843 157:0.99607843 158:0.99607843 159:0.99607843 160:0.72156863 161:0.13333333 179:0.031372549 180:0.34509804 181:0.99215686 182:0.99215686 183:0.99215686 184:0.99215686 185:0.99215686 186:0.99215686 187:0.99215686 188:0.99215686 189:0.84705882 190:0.10980392 205:0.17647059 206:0.60784314 207:0.89803922 208:0.99215686 209:0.99215686 210:0.99215686 211:0.99215686 212:0.99215686 213:0.99215686 214:0.99215686 215:0.99215686 216:0.99215686 217:0.99215686 218:0.73333333 219:0.1254902 233:0.63137255 234:0.98823529 235:0.99215686 236:0.99215686 237:0.99215686 238:0.99215686 239:0.99215686 240:0.97647059 241:0.56078431 242:0.39607843 243:0.56078431 244:0.97254902 245:0.99215686 246:0.99215686 247:0.54901961 262:0.63137255 263:0.99215686 264:0.99215686 265:0.99215686 266:0.99215686 267:0.86666667 268:0.23921569 272:0.43921569 273:0.99215686 274:0.99215686 275:0.035294118 290:0.46666667 291:0.99215686 292:0.99215686 293:0.99215686 294:0.87843137 295:0.20784314 297:0.15686275 300:0.31372549 301:0.99215686 302:0.99215686 303:0.035294118 318:0.035294118 319:0.40392157 320:0.65882353 321:0.36470588 322:0.0078431373 328:0.31372549 329:0.99215686 330:0.99215686 331:0.16862745 356:0.68235294 357:0.99215686 358:0.99215686 359:0.21176471 383:0.039215686 384:0.81176471 385:0.99215686 386:0.8627451 387:0.023529412 411:0.17647059 412:0.99215686 413:0.99215686 414:0.25882353 438:0.0078431373 439:0.65098039 440:0.99215686 441:0.9372549 442:0.14901961 457:0.16470588 458:0.43921569 459:0.62352941 460:0.62352941 461:0.62352941 462:0.62352941 463:0.62352941 464:0.62352941 465:0.29803922 466:0.44705882 467:0.99215686 468:0.99215686 469:0.51764706 482:0.0039215686 483:0.31372549 484:0.78823529 485:0.94509804 486:0.99215686 487:0.99215686 488:0.99215686 489:0.99215686 490:0.99215686 491:0.99215686 492:0.99215686 493:0.99215686 494:0.99215686 495:0.99215686 496:0.99215686 497:0.12941176 498:0.058823529 499:0.28627451 500:0.43137255 509:0.062745098 510:0.60784314 511:0.99215686 512:0.99215686 513:0.99215686 514:0.74509804 515:0.43921569 516:0.32941176 517:0.47843137 518:0.71764706 519:0.94117647 520:0.99215686 521:0.99215686 522:0.99215686 523:0.99215686 524:0.99215686 525:0.99215686 526:0.99215686 527:0.94509804 528:0.28627451 537:0.75294118 538:0.99215686 539:0.99215686 540:0.7254902 541:0.23921569 542:0.011764706 547:0.34117647 548:0.99215686 549:0.99215686 550:0.99215686 551:0.99607843 552:0.99215686 553:0.98039216 554:0.89411765 555:0.27843137 565:0.99607843 566:0.99215686 567:0.81176471 568:0.039215686 574:0.062745098 575:0.8627451 576:0.99215686 577:0.99215686 578:0.6745098 579:0.29019608 580:0.29019608 581:0.25098039 593:0.99607843 594:0.99215686 595:0.38039216 601:0.054901961 602:0.92156863 603:0.99215686 604:0.99215686 605:0.67843137 606:0.02745098 621:0.99607843 622:0.96470588 623:0.090196078 628:0.25882353 629:0.83529412 630:0.99215686 631:0.99215686 632:0.67843137 633:0.039215686 649:0.92941176 650:0.99215686 651:0.60392157 652:0.18039216 653:0.18039216 654:0.52941176 655:0.85098039 656:0.97647059 657:0.99215686 658:0.81960784 659:0.34117647 660:0.015686275 677:0.30196078 678:0.99215686 679:0.99215686 680:0.99215686 681:0.99215686 682:0.99215686 683:0.99215686 684:0.93333333 685:0.45882353 686:0.0039215686 
0.54398123740886417 153:0.2 154:0.90980392 155:0.92156863 156:0.92156863 157:0.52156863 158:0.13333333 180:0.21176471 181:0.92156863 182:0.99607843 183:0.99607843 184:0.99607843 185:0.99607843 186:0.89411765 187:0.52156863 208:0.48235294 209:0.99607843 210:0.99607843 211:0.99607843 212:0.99607843 213:0.99607843 214:0.99607843 215:0.99215686 216:0.39215686 236:0.047058824 237:0.8627451 238:0.8627451 239:0.90980392 240:0.99607843 241:0.99607843 242:0.99607843 243:0.99607843 244:0.84313725 245:0.035294118 267:0.14509804 268:0.40392157 269:0.80784314 270:0.99607843 271:0.99607843 272:0.99607843 273:0.050980392 297:0.094117647 298:0.81960784 299:0.99607843 300:0.99607843 301:0.050980392 318:0.098039216 319:0.43529412 320:0.43529412 321:0.43529412 322:0.96470588 323:0.78431373 324:0.43529412 325:0.43529412 326:0.8 327:0.99607843 328:0.99607843 329:0.050980392 345:0.29803922 346:0.78823529 347:0.99607843 348:0.99607843 349:0.99607843 350:0.99607843 351:0.99607843 352:0.99607843 353:0.99607843 354:0.99607843 355:0.99607843 356:0.99607843 357:0.67843137 358:0.23921569 372:0.45882353 373:0.96862745 374:0.99607843 375:0.99607843 376:0.99607843 377:0.99607843 378:0.99607843 379:0.99607843 380:0.99607843 381:0.99607843 382:0.99607843 383:0.99607843 384:0.99607843 385:0.99607843 386:0.9372549 387:0.81176471 388:0.7254902 389:0.31764706 390:0.51764706 399:0.34117647 400:0.97647059 401:0.99607843 402:0.99607843 403:0.99607843 404:0.99607843 405:0.99607843 406:0.99607843 407:0.99607843 408:0.99607843 409:0.99607843 410:0.99607843 411:0.99607843 412:0.99607843 413:0.99607843 414:0.99607843 415:0.99607843 416:0.99607843 417:0.99607843 418:0.99607843 427:0.4627451 428:0.99607843 429:0.99607843 430:0.97254902 431:0.89019608 432:0.56470588 433:0.34901961 434:0.34901961 435:0.5372549 436:0.91764706 437:0.99607843 438:1 439:0.99607843 440:0.99607843 441:0.99607843 442:0.99607843 443:0.99607843 444:0.99607843 445:0.88627451 446:0.34901961 455:0.4627451 456:0.99607843 457:0.98823529 458:0.76078431 464:0.29019608 465:0.99607843 466:0.99607843 467:0.96862745 468:0.43137255 469:0.64705882 470:0.50196078 471:0.56078431 472:0.88235294 473:0.16470588 483:0.7254902 484:0.99607843 485:0.69803922 491:0.17647059 492:0.90196078 493:0.99607843 494:0.94509804 495:0.21960784 511:0.78039216 512:0.99607843 513:0.5254902 514:0.32156863 517:0.21176471 518:0.70196078 519:0.90980392 520:0.99607843 521:0.99607843 522:0.93333333 523:0.17647059 539:0.4627451 540:0.99607843 541:0.99607843 542:0.96862745 543:0.86666667 544:0.86666667 545:0.93333333 546:0.99607843 547:0.99607843 548:0.99607843 549:0.9372549 550:0.32156863 551:0.058823529 567:0.34901961 568:0.98039216 569:0.99607843 570:0.99607843 571:0.99607843 572:0.99607843 573:0.99607843 574:0.99607843 575:0.99607843 576:0.93333333 577:0.60784314 596:0.77254902 597:0.83529412 598:0.83529412 599:0.94509804 600:0.99607843 601:0.99607843 602:0.9254902 603:0.83529412 604:0.31764706 627:0.25490196 628:0.37647059 629:0.37647059 630:0.21568627 
0.13748805490818736 148:0.0078431373 149:0.039215686 150:0.035294118 151:0.54509804 152:0.99607843 153:0.81176471 154:0.52156863 155:0.52156863 156:0.72941176 157:0.043137255 175:0.011764706 176:0.45490196 177:0.90980392 178:0.87058824 179:0.99215686 180:0.99215686 181:0.99215686 182:0.99215686 183:0.99215686 184:0.99607843 185:0.89411765 203:0.098039216 204:0.99215686 205:0.99215686 206:0.99215686 207:0.99215686 208:0.99215686 209:0.99215686 210:0.99215686 211:0.99215686 212:0.99607843 213:0.90980392 214:0.054901961 231:0.098039216 232:0.99215686 233:0.99215686 234:0.99215686 235:0.48627451 236:0.32941176 237:0.50588235 238:0.8 239:0.89019608 240:0.99607843 241:0.99215686 242:0.69019608 259:0.074509804 260:0.90196078 261:0.74117647 262:0.28235294 263:0.066666667 267:0.1372549 268:0.65490196 269:0.99215686 270:0.94901961 271:0.23529412 288:0.14509804 289:0.078431373 296:0.52156863 297:0.99215686 298:0.99215686 299:0.32941176 324:0.52156863 325:0.99215686 326:0.94117647 327:0.21960784 351:0.36470588 352:0.92941176 353:0.99215686 354:0.84705882 379:0.94901961 380:0.99607843 381:0.94901961 382:0.25882353 407:0.94901961 408:0.99607843 409:0.89411765 434:0.45490196 435:0.99607843 436:1 437:0.40784314 461:0.21960784 462:0.95294118 463:0.99215686 464:0.90196078 489:0.38039216 490:0.99215686 491:0.99215686 492:0.47843137 517:0.4745098 518:0.99215686 519:0.99215686 520:0.15686275 545:0.85490196 546:0.99215686 547:0.65098039 553:0.070588235 554:0.047058824 573:0.85490196 574:0.99215686 575:0.51764706 577:0.16470588 578:0.28627451 579:0.6 580:0.75686275 581:0.82352941 582:0.8 583:0.47058824 601:0.85490196 602:0.99215686 603:0.90196078 604:0.80784314 605:0.91372549 606:0.99215686 607:0.99215686 608:0.99215686 609:0.99215686 610:0.99215686 611:0.61176471 629:0.85490196 630:0.99215686 631:0.99215686 632:0.99607843 633:0.99215686 634:0.99215686 635:0.99215686 636:0.99215686 637:0.88235294 638:0.22745098 639:0.08627451 657:0.42352941 658:0.99215686 659:0.99215686 660:0.99607843 661:0.99215686 662:0.99215686 663:0.90980392 664:0.45490196 665:0.066666667 685:0.38039216 686:0.99215686 687:0.99215686 688:0.99607843 689:0.94509804 690:0.51764706 691:0.19215686 
0.39272890015071826 98:0.074509804 99:0.65098039 100:0.84313725 101:0.6 102:0.1254902 125:0.36078431 126:0.92941176 127:0.81568627 128:0.8 129:0.99607843 130:0.91764706 131:0.21960784 152:0.015686275 153:0.97647059 154:0.56862745 155:0.011764706 156:0.0078431373 157:0.24705882 158:0.89019608 159:0.8627451 160:0.12156863 180:0.0039215686 181:0.24705882 186:0.30980392 187:0.98039216 188:0.71372549 189:0.023529412 215:0.63137255 216:0.99607843 217:0.10196078 243:0.34901961 244:0.99607843 245:0.24313725 271:0.18039216 272:0.99607843 273:0.39215686 299:0.34901961 300:0.99607843 301:0.25490196 327:0.60392157 328:0.99607843 329:0.098039216 354:0.098039216 355:0.87843137 356:0.68235294 375:0.12941176 376:0.27843137 377:0.27843137 378:0.27843137 379:0.16470588 382:0.54509804 383:0.99607843 384:0.2745098 401:0.02745098 402:0.49411765 403:0.99215686 404:0.99607843 405:0.92941176 406:0.99607843 407:0.99215686 408:0.75686275 409:0.62352941 410:0.99607843 411:0.53333333 412:0.0039215686 428:0.11372549 429:0.8 430:0.90196078 431:0.32941176 432:0.17254902 433:0.074509804 434:0.25490196 435:0.58039216 436:0.95686275 437:0.99607843 438:0.80784314 439:0.082352941 455:0.023529412 456:0.83137255 457:0.48235294 458:0.02745098 463:0.21568627 464:0.94117647 465:0.99607843 466:0.83137255 467:0.18431373 483:0.61176471 484:0.63137255 490:0.062745098 491:0.84705882 492:0.94509804 493:0.63137255 494:0.99607843 495:0.90980392 496:0.11764706 510:0.21568627 511:0.98431373 512:0.16078431 517:0.08627451 518:0.78039216 519:0.94117647 520:0.23921569 521:0.0078431373 522:0.70980392 523:0.99607843 524:0.24705882 538:0.68235294 539:0.99607843 540:0.058823529 544:0.34509804 545:0.93333333 546:0.94509804 547:0.23137255 550:0.11764706 551:0.68235294 552:0.25490196 566:0.58039216 567:0.99607843 568:0.058823529 570:0.031372549 571:0.58823529 572:0.98823529 573:0.72156863 574:0.11372549 594:0.058823529 595:0.91372549 596:0.31372549 597:0.50588235 598:0.90196078 599:0.9254902 600:0.49411765 601:0.074509804 623:0.17254902 624:0.79607843 625:0.76862745 626:0.59607843 627:0.070588235 
0.36875465337541569 156:0.035294118 157:0.22352941 158:0.54117647 159:0.82352941 160:0.49411765 182:0.36470588 183:0.88235294 184:0.95686275 185:0.97647059 186:0.9254902 187:0.90980392 188:0.90980392 189:0.17254902 210:0.35686275 211:0.77647059 212:0.36078431 213:0.34509804 214:0.074509804 215:0.015686275 216:0.74117647 217:0.89019608 218:0.08627451 244:0.13333333 245:0.79215686 246:0.47058824 272:0.10588235 273:0.85882353 274:0.72941176 300:0.34509804 301:0.99215686 302:0.12941176 328:0.047058824 329:0.39215686 330:0.41176471 357:0.26666667 358:0.54117647 371:0.031372549 372:0.13333333 373:0.13333333 374:0.13333333 375:0.13333333 376:0.13333333 377:0.13333333 378:0.13333333 379:0.13333333 380:0.13333333 381:0.13333333 382:0.08627451 385:0.19215686 396:0.070588235 397:0.43529412 398:0.69411765 399:0.76078431 400:0.99215686 401:0.99215686 402:0.99215686 403:0.99215686 404:0.99215686 405:1 406:0.99215686 407:0.99215686 408:0.99215686 409:0.99215686 410:0.89019608 411:0.6745098 412:0.5254902 413:0.48627451 423:0.054901961 424:0.7372549 425:0.99215686 426:0.39215686 427:0.17254902 428:0.17254902 429:0.54901961 430:0.17254902 431:0.17254902 432:0.17254902 433:0.17254902 434:0.17254902 435:0.34117647 436:0.41568627 437:0.60392157 438:0.60392157 439:0.96078431 440:0.99215686 441:0.94117647 442:0.27843137 451:0.38823529 452:0.79215686 453:0.30588235 454:0.0039215686 467:0.30588235 468:0.94117647 469:0.90588235 470:0.3254902 479:0.66666667 480:0.29411765 493:0.050980392 494:0.37254902 495:0.41176471 496:0.1372549 507:0.18039216 508:0.58823529 509:0.72156863 510:0.3372549 520:0.031372549 521:0.24313725 522:0.90196078 523:0.42745098 537:0.24313725 538:0.54509804 539:0.86666667 540:0.35686275 541:0.27058824 542:0.29019608 543:0.15686275 544:0.047058824 545:0.10196078 546:0.47843137 547:0.64705882 548:0.89411765 549:0.44313725 550:0.36862745 551:0.043137255 568:0.1372549 569:0.21960784 570:0.65098039 571:0.81960784 572:0.81960784 573:0.82352941 574:0.70588235 575:0.38823529 576:0.18431373 
0.017552223880052068 123:0.31372549 124:0.49019608 125:0.99607843 126:0.99607843 127:0.80784314 128:0.75294118 129:0.37254902 149:0.32156863 150:0.78823529 151:0.96862745 152:0.99215686 153:0.99215686 154:0.99215686 155:0.99215686 156:0.99215686 157:0.97647059 158:0.52156863 176:0.32156863 177:0.96862745 178:0.99215686 179:0.95294118 180:0.69411765 181:0.41960784 182:0.15686275 183:0.15686275 184:0.6745098 185:0.99215686 186:0.97647059 187:0.36078431 203:0.10196078 204:0.80392157 205:0.92941176 206:0.36862745 207:0.20784314 212:0.066666667 213:0.6745098 214:0.99215686 215:0.83529412 231:0.4627451 232:0.7372549 233:0.22745098 241:0.19215686 242:0.99215686 243:0.96470588 259:0.43529412 260:0.58039216 269:0.18039216 270:0.97254902 271:0.96470588 297:0.098039216 298:0.82352941 299:0.96470588 325:0.19215686 326:0.99215686 327:0.96470588 353:0.19215686 354:0.99215686 355:0.96470588 379:0.24313725 380:0.27058824 381:0.69803922 382:0.99215686 383:0.96470588 404:0.011764706 405:0.47058824 406:0.72941176 407:0.96470588 408:0.99215686 409:0.99215686 410:0.99215686 411:0.97254902 412:0.098039216 431:0.14901961 432:0.66666667 433:0.99215686 434:0.99215686 435:0.89411765 436:0.91372549 437:0.99215686 438:0.99215686 439:0.99215686 440:0.82352941 441:0.38431373 458:0.14117647 459:0.85490196 460:0.99215686 461:0.68627451 462:0.42745098 463:0.047058824 464:0.28627451 465:0.99215686 466:0.97647059 467:0.96470588 468:0.99215686 469:0.81960784 470:0.38431373 485:0.14901961 486:0.87058824 487:0.9254902 488:0.48235294 492:0.80784314 493:0.99215686 494:0.34901961 495:0.015686275 496:0.74509804 497:0.99215686 498:0.82745098 499:0.10588235 512:0.15686275 513:0.8745098 514:0.99215686 515:0.63529412 519:0.84705882 520:0.98431373 521:0.59215686 522:0.019607843 524:0.29019608 525:0.97254902 526:0.99215686 527:0.21176471 540:0.38039216 541:0.99215686 542:0.62745098 543:0.043137255 546:0.54901961 547:0.98039216 548:0.75686275 549:0.035294118 553:0.47843137 554:0.99215686 555:0.75686275 556:0.3254902 557:0.29803922 568:0.38039216 569:0.99215686 570:0.23921569 572:0.015686275 573:0.52156863 574:0.98823529 575:0.90588235 576:0.25490196 581:0.08627451 582:0.75686275 583:0.99215686 584:0.99215686 585:0.90980392 596:0.38039216 597:0.99215686 598:0.36470588 599:0.23921569 600:0.71764706 601:0.99215686 602:0.83529412 603:0.24705882 610:0.098039216 611:0.71764706 612:0.74117647 613:0.27058824 624:0.38039216 625:0.99215686 626:0.99215686 627:0.99215686 628:0.94509804 629:0.63137255 630:0.011764706 652:0.17647059 653:0.61176471 654:0.99215686 655:0.91764706 656:0.18431373 
1 202:0.031372549 203:0.25098039 204:0.031372549 230:0.51372549 231:0.98431373 232:0.6627451 233:0.61960784 234:0.62352941 235:0.61960784 236:0.30980392 257:0.60784314 258:0.99215686 259:0.99215686 260:0.99215686 261:0.99215686 262:1 263:0.99215686 264:0.99215686 265:0.99215686 266:0.37254902 285:0.47843137 286:0.87843137 287:0.98431373 288:0.98431373 289:0.98431373 290:0.99215686 291:0.98431373 292:0.98431373 293:0.98431373 294:0.83137255 295:0.51372549 296:0.031372549 314:0.062745098 315:0.49411765 316:0.49411765 317:0.49411765 318:0.99215686 319:0.98431373 320:0.98431373 321:0.98431373 322:0.98431373 323:0.99215686 324:0.55294118 346:0.12156863 347:0.58431373 348:0.8627451 349:0.98431373 350:0.98431373 351:0.99215686 352:0.97254902 353:0.43529412 376:0.18823529 377:0.90980392 378:0.98431373 379:0.99215686 380:0.98431373 381:0.49411765 405:0.8745098 406:0.99215686 407:1 408:0.99215686 409:0.99215686 410:0.12156863 432:0.37647059 433:0.95686275 434:0.98431373 435:0.99215686 436:0.98431373 437:0.98431373 438:0.77254902 439:0.74509804 440:0.51372549 441:0.1254902 442:0.43921569 443:0.16862745 460:0.49803922 461:0.98431373 462:0.98431373 463:0.99215686 464:0.98431373 465:0.98431373 466:0.98431373 467:0.98431373 468:0.99215686 469:0.98431373 470:0.98431373 471:0.8627451 472:0.18823529 488:0.49803922 489:0.98431373 490:0.98431373 491:0.99215686 492:0.98431373 493:0.98431373 494:0.98431373 495:0.98431373 496:0.99215686 497:0.98431373 498:0.98431373 499:0.98431373 500:0.90980392 516:0.18823529 517:0.36862745 518:0.75686275 519:0.99215686 520:0.98431373 521:0.98431373 522:0.98431373 523:0.98431373 524:0.99215686 525:0.98431373 526:0.98431373 527:0.98431373 528:0.98431373 548:0.47058824 549:0.61960784 550:0.94901961 551:0.99215686 552:0.62352941 553:0.61960784 554:0.61960784 555:0.61960784 556:0.23137255 578:0.21568627 579:0.24313725 
0.17444798260881578 100:0.08627451 101:0.83137255 102:0.73333333 103:0.043137255 128:0.27843137 129:0.99215686 130:0.99215686 131:0.47058824 156:0.019607843 157:0.92941176 158:0.99215686 159:0.47843137 184:0.098039216 185:0.94901961 186:0.99215686 187:0.54509804 212:0.14509804 213:0.96078431 214:0.99215686 215:0.81960784 240:0.27843137 241:0.99215686 242:0.99215686 243:0.53333333 268:0.50980392 269:0.99215686 270:0.99215686 271:0.3254902 296:0.55686275 297:0.99215686 298:0.83529412 299:0.035294118 322:0.14509804 323:0.49019608 324:0.98431373 325:0.99215686 326:0.8627451 327:0.078431373 349:0.2627451 350:0.89803922 351:0.99607843 352:0.99215686 353:0.99215686 354:0.99215686 355:0.87843137 356:0.058823529 376:0.29803922 377:0.99607843 378:0.99607843 379:1 380:0.99607843 381:0.99607843 382:0.99607843 383:0.99607843 384:0.17254902 403:0.16078431 404:0.89019608 405:0.99215686 406:0.99215686 407:0.99607843 408:0.99215686 409:0.9254902 410:0.96470588 411:0.72941176 412:0.0078431373 430:0.035294118 431:0.69411765 432:0.99215686 433:0.89803922 434:0.59607843 435:0.99607843 436:0.99215686 437:0.54901961 438:0.058823529 439:0.035294118 458:0.32941176 459:0.99215686 460:0.97647059 461:0.37647059 462:0.59607843 463:0.99607843 464:0.99215686 465:0.21960784 486:0.48235294 487:0.99215686 488:0.62352941 489:0.21568627 490:0.99215686 491:0.99607843 492:0.84705882 493:0.035294118 514:0.64705882 515:0.99215686 516:0.61176471 517:0.79215686 518:0.99215686 519:0.99607843 520:0.26666667 541:0.11372549 542:0.89803922 543:0.99215686 544:0.92156863 545:0.99215686 546:0.99215686 547:0.71372549 548:0.0078431373 569:0.37647059 570:0.99215686 571:0.99215686 572:0.99215686 573:0.99215686 574:0.84705882 575:0.082352941 597:0.047058824 598:0.85882353 599:0.99215686 600:0.99215686 601:0.96470588 602:0.28627451 626:0.31764706 627:0.92156863 628:0.72941176 629:0.28627451 
0.63732700116795271 97:0.18431373 98:0.5254902 99:0.83137255 100:0.99607843 101:1 102:0.60784314 125:0.69803922 126:0.99607843 127:0.99607843 128:0.99607843 129:0.99607843 130:0.98823529 131:0.28627451 153:0.66666667 154:0.73333333 155:0.39215686 156:0.10196078 157:0.12941176 158:0.65098039 159:0.85098039 160:0.019607843 181:0.098039216 182:0.011764706 186:0.32156863 187:0.99607843 188:0.20784314 214:0.050980392 215:0.99607843 216:0.38431373 242:0.50196078 243:0.99607843 244:0.37254902 269:0.050980392 270:0.90588235 271:0.99607843 272:0.035294118 297:0.17254902 298:0.99607843 299:0.79607843 300:0.011764706 324:0.031372549 325:0.6745098 326:0.99215686 327:0.40392157 348:0.12156863 349:0.2745098 350:0.2 351:0.17647059 352:0.52156863 353:0.99607843 354:0.66666667 374:0.25490196 375:0.60784314 376:0.94117647 377:0.99607843 378:0.99607843 379:0.99607843 380:0.99607843 381:0.99607843 382:0.38431373 401:0.25882353 402:0.94901961 403:0.99607843 404:0.97254902 405:0.94509804 406:0.99607843 407:0.99607843 408:0.99607843 409:0.99607843 410:0.90588235 411:0.31372549 412:0.0039215686 428:0.20392157 429:0.8 430:0.99215686 431:0.83921569 432:0.29803922 433:0.29019608 434:0.99607843 435:0.99215686 436:0.76862745 437:0.57254902 438:0.98431373 439:0.99607843 440:0.50980392 441:0.031372549 456:0.65490196 457:0.99607843 458:0.67058824 460:0.10588235 461:0.87058824 462:0.99607843 463:0.81960784 466:0.1372549 467:0.99607843 468:0.99607843 469:0.32156863 483:0.15294118 484:0.95686275 485:0.81568627 486:0.094117647 487:0.23921569 488:0.8627451 489:0.99607843 490:0.85490196 491:0.070588235 494:0.0039215686 495:0.14509804 496:0.97647059 497:0.90196078 498:0.08627451 511:0.24705882 512:0.99607843 513:0.82352941 514:0.019607843 515:0.63529412 516:0.99607843 517:0.93333333 518:0.23921569 524:0.082352941 525:0.84313725 526:0.52941176 539:0.16078431 540:0.95686275 541:0.85490196 542:0.56862745 543:0.99607843 544:0.76862745 545:0.10588235 553:0.50196078 554:0.91764706 555:0.15294118 567:0.24705882 568:0.99607843 569:0.96862745 570:0.95686275 571:0.94117647 572:0.17254902 581:0.043137255 582:0.72156863 583:0.69803922 595:0.14901961 596:0.93333333 597:0.98823529 598:0.90980392 599:0.24313725 610:0.50588235 611:0.96862745 612:0.18431373 624:0.35294118 625:0.6745098 638:0.20784314 639:0.80392157 640:0.24313725 
0.014315598324867998 153:0.31764706 154:0.41176471 155:0.41568627 156:0.41176471 157:0.41176471 158:0.68235294 159:0.81960784 160:0.41176471 161:0.41176471 162:0.023529412 177:0.070588235 178:0.30588235 179:0.81568627 180:0.81568627 181:0.94901961 182:0.98823529 183:0.99215686 184:0.98823529 185:0.98823529 186:0.98823529 187:0.98823529 188:0.98823529 189:0.98823529 190:0.53333333 204:0.031372549 205:0.67843137 206:0.98823529 207:0.98823529 208:0.98823529 209:0.98823529 210:0.98823529 211:0.96862745 212:0.92941176 213:0.92941176 214:0.95686275 215:0.98823529 216:0.98823529 217:0.98823529 218:0.8627451 219:0.14901961 232:0.47058824 233:0.98823529 234:0.98823529 235:0.98823529 236:0.54509804 237:0.51764706 238:0.51764706 239:0.30980392 242:0.24705882 243:0.51764706 244:0.85098039 245:0.98823529 246:0.98823529 247:0.23137255 260:0.054901961 261:0.45882353 262:0.11372549 263:0.11372549 264:0.0078431373 271:0.77647059 272:0.95294118 273:0.98823529 274:0.98823529 275:0.23137255 297:0.0078431373 298:0.39607843 299:0.95294118 300:0.98823529 301:0.98823529 302:0.7372549 303:0.066666667 325:0.37254902 326:0.98823529 327:0.98823529 328:0.98823529 329:0.98823529 330:0.32941176 351:0.14901961 352:0.49019608 353:0.96862745 354:0.98823529 355:0.98823529 356:0.94509804 357:0.32941176 358:0.0039215686 378:0.10588235 379:0.50980392 380:0.98823529 381:0.98823529 382:0.98823529 383:0.65882353 384:0.20392157 405:0.10588235 406:0.81960784 407:0.99215686 408:0.98823529 409:0.98823529 410:0.70980392 411:0.047058824 432:0.38823529 433:0.85882353 434:0.99215686 435:1 436:0.99215686 437:0.34901961 458:0.16862745 459:0.54509804 460:0.97647059 461:0.98823529 462:0.98823529 463:0.89411765 464:0.27058824 465:0.062745098 485:0.019607843 486:0.71764706 487:0.98823529 488:0.98823529 489:0.97647059 490:0.92941176 491:0.20784314 513:0.29411765 514:0.98823529 515:0.98823529 516:0.98823529 517:0.53333333 540:0.41568627 541:0.90980392 542:0.98823529 543:0.98823529 544:0.50196078 545:0.02745098 567:0.11372549 568:0.83529412 569:0.98823529 570:0.98823529 571:0.98823529 572:0.71372549 573:0.59607843 574:0.11764706 575:0.12156863 576:0.25882353 577:0.66666667 578:0.11764706 579:0.46666667 580:0.10588235 594:0.1254902 595:0.82352941 596:0.98823529 597:0.98823529 598:0.98823529 599:0.98823529 600:0.98823529 601:0.98823529 602:0.98823529 603:0.99215686 604:0.98823529 605:0.98823529 606:0.98823529 607:0.98823529 608:0.55686275 622:0.23529412 623:0.98823529 624:0.98823529 625:0.98823529 626:0.98823529 627:0.98823529 628:0.98823529 629:0.98823529 630:0.98823529 631:0.99215686 632:0.98823529 633:0.98823529 634:0.81960784 635:0.63529412 636:0.18823529 650:0.19607843 651:0.9254902 652:0.98823529 653:0.98823529 654:0.98823529 655:0.89411765 656:0.81176471 657:0.81176471 658:0.81176471 659:0.23137255 660:0.23137255 661:0.23137255 662:0.12156863 679:0.2627451 680:0.67843137 681:0.98823529 682:0.57254902 683:0.19215686 
0.053237716003545772 99:0.050980392 100:0.43137255 101:0.9254902 102:1 103:0.97647059 104:0.22352941 126:0.16470588 127:0.87843137 128:0.99215686 129:0.99215686 130:0.99215686 131:0.99215686 132:0.41568627 153:0.019607843 154:0.70196078 155:0.99215686 156:0.99215686 157:0.99215686 158:0.99215686 159:0.99215686 160:0.7254902 181:0.22352941 182:0.99215686 183:0.99215686 184:0.99215686 185:0.71372549 186:0.45882353 187:0.98823529 188:0.87843137 209:0.55686275 210:0.99215686 211:0.99215686 212:0.99215686 213:0.61960784 215:0.97647059 216:0.97254902 217:0.28235294 237:0.55686275 238:0.99215686 239:0.99215686 240:0.86666667 241:0.14509804 243:0.97647059 244:0.99215686 245:0.34509804 265:0.54509804 266:0.99215686 267:0.97647059 268:0.24313725 271:0.97647059 272:0.88235294 273:0.015686275 293:0.043137255 294:0.43921569 295:0.13333333 299:0.97647059 300:0.61568627 326:0.28235294 327:0.98823529 328:0.41568627 348:0.0078431373 349:0.23529412 350:0.23529412 351:0.18039216 354:0.54901961 355:0.99215686 356:0.41568627 373:0.22745098 374:0.46666667 375:0.76470588 376:0.77254902 377:0.99215686 378:0.99215686 379:0.94117647 380:0.76470588 381:0.76470588 382:0.97254902 383:0.99215686 384:0.41568627 400:0.17647059 401:0.95294118 402:0.99215686 403:0.99215686 404:0.99215686 405:0.99215686 406:0.99215686 407:0.99215686 408:0.99215686 409:0.99215686 410:0.99215686 411:0.99215686 412:0.84705882 413:0.30588235 427:0.062745098 428:0.77254902 429:0.99215686 430:0.99215686 431:0.99215686 432:0.99215686 433:0.99215686 434:0.99215686 435:0.99215686 436:0.99215686 437:0.99215686 438:0.99215686 439:0.99215686 440:0.99215686 441:0.97647059 442:0.45882353 455:0.16470588 456:0.99215686 457:0.82745098 458:0.32156863 459:0.21568627 460:0.039215686 461:0.28235294 462:0.48627451 463:0.62352941 464:0.99215686 465:0.99215686 466:0.99215686 467:0.99215686 468:0.99215686 469:0.99215686 470:0.98823529 471:0.22352941 482:0.011764706 483:0.64705882 484:0.87058824 485:0.10588235 490:0.15294118 491:0.87058824 492:0.99215686 493:0.99215686 494:0.99215686 495:0.44705882 496:0.94509804 497:0.99215686 498:0.99215686 499:0.85882353 500:0.082352941 510:0.070588235 511:0.99215686 512:0.82352941 513:0.047058824 516:0.0078431373 517:0.44705882 518:0.86666667 519:0.99215686 520:0.99215686 521:0.9254902 522:0.6 523:0.0078431373 524:0.20392157 525:0.68235294 526:0.99215686 527:0.99215686 528:0.43921569 538:0.070588235 539:0.99215686 540:0.99215686 541:0.65882353 542:0.25882353 543:0.25882353 544:0.70588235 545:0.99215686 546:0.99215686 547:0.99215686 548:0.99215686 549:0.50196078 553:0.18823529 554:0.99215686 555:0.99215686 556:0.48235294 566:0.070588235 567:0.99215686 568:0.99215686 569:0.99215686 570:0.99215686 571:0.99215686 572:0.99215686 573:0.99215686 574:0.99215686 575:0.99215686 576:0.6 577:0.035294118 581:0.18823529 582:0.99215686 583:0.99215686 584:0.1372549 594:0.011764706 595:0.4745098 596:0.99215686 597:0.99215686 598:0.99215686 599:0.99215686 600:0.99215686 601:0.99215686 602:0.85098039 603:0.1372549 604:0.031372549 609:0.11372549 610:0.88627451 611:0.67843137 612:0.082352941 623:0.011764706 624:0.066666667 625:0.41568627 626:0.90980392 627:0.99215686 628:0.98431373 629:0.27058824 630:0.054901961 638:0.050980392 639:0.015686275 
1 152:0.11372549 153:0.33333333 154:0.3372549 155:0.77254902 156:0.3372549 157:0.33333333 158:0.3372549 159:0.33333333 160:0.22352941 178:0.6627451 179:0.65882353 180:0.77254902 181:0.98431373 182:0.99215686 183:0.98431373 184:0.99215686 185:0.98431373 186:0.99215686 187:0.98431373 188:0.88235294 189:0.65882353 190:0.44705882 204:0.11372549 205:0.77254902 206:1 207:0.99215686 208:1 209:0.99215686 210:0.99607843 211:0.99215686 212:0.99607843 213:0.76862745 214:0.77647059 215:0.99215686 216:0.99607843 217:0.99215686 218:0.99607843 219:0.32941176 232:0.10980392 233:0.76862745 234:0.99215686 235:0.98431373 236:0.32941176 237:0.3254902 238:0.32941176 239:0.3254902 240:0.32941176 241:0.10980392 242:0.10980392 243:0.76862745 244:0.99215686 245:0.98431373 246:0.99215686 247:0.3254902 270:0.11372549 271:0.77254902 272:0.99607843 273:0.99215686 274:0.88627451 275:0.21960784 298:0.77254902 299:0.98431373 300:0.99215686 301:0.54117647 302:0.21960784 324:0.11372549 325:0.77254902 326:0.99607843 327:0.99215686 328:0.88627451 329:0.21960784 352:0.77254902 353:0.98431373 354:0.99215686 355:0.98431373 356:0.21960784 378:0.11372549 379:0.77254902 380:0.99607843 381:0.99215686 382:0.88627451 383:0.21960784 405:0.44705882 406:0.77254902 407:0.98431373 408:0.99215686 409:0.98431373 410:0.21960784 432:0.11372549 433:0.77254902 434:0.99607843 435:0.99215686 436:0.6627451 437:0.21960784 459:0.44705882 460:0.77254902 461:0.98431373 462:0.99215686 463:0.54117647 486:0.11372549 487:0.77254902 488:0.99607843 489:0.99215686 490:0.6627451 491:0.21960784 514:0.77254902 515:0.98431373 516:0.99215686 517:0.54117647 541:0.6627451 542:0.99607843 543:0.99215686 544:0.6627451 569:0.65882353 570:0.99215686 571:0.98431373 572:0.21960784 597:0.6627451 598:0.99607843 599:0.99215686 600:0.22352941 625:0.65882353 626:0.99215686 627:0.98431373 628:0.88235294 629:0.65882353 630:0.6627451 631:0.65882353 632:0.22352941 633:0.65882353 634:0.44705882 654:0.99607843 655:0.99215686 656:0.99607843 657:0.99215686 658:0.99607843 659:0.99215686 660:0.99607843 661:0.99215686 662:0.99607843 663:0.76862745 664:0.6627451 665:0.21960784 682:0.32941176 683:0.76862745 684:0.99215686 685:0.98431373 686:0.99215686 687:0.98431373 688:0.99215686 689:0.54117647 690:0.32941176 691:0.10980392 
0.16809686957699813 91:0.10980392 92:0.90588235 93:0.99607843 94:0.99607843 95:0.62352941 96:0.47843137 97:0.18431373 98:0.066666667 119:0.043137255 120:0.5372549 121:0.98039216 122:0.99215686 123:0.99215686 124:0.99215686 125:0.99215686 126:0.85098039 127:0.59215686 149:0.039215686 150:0.039215686 151:0.24705882 152:0.56078431 153:0.91764706 154:0.99215686 155:0.99215686 156:0.45882353 157:0.031372549 181:0.1254902 182:0.5254902 183:0.94117647 184:0.99215686 185:0.50196078 211:0.58431373 212:0.99215686 213:0.96470588 214:0.058823529 239:0.0078431373 240:0.7254902 241:0.99215686 242:0.42745098 268:0.61176471 269:0.99215686 270:0.78039216 296:0.61176471 297:0.99215686 298:0.83137255 324:0.61176471 325:0.99215686 326:0.83137255 351:0.17254902 352:0.69019608 353:0.99215686 354:0.92941176 355:0.61176471 356:0.23137255 357:0.058823529 377:0.21176471 378:0.79215686 379:0.96078431 380:0.99215686 381:0.99215686 382:0.99215686 383:0.99215686 384:0.99215686 385:0.85098039 386:0.40784314 403:0.36078431 404:0.85490196 405:0.98431373 406:0.99215686 407:0.99215686 408:0.99215686 409:0.99215686 410:0.6 411:0.42745098 412:0.89411765 413:0.99215686 414:0.75294118 415:0.054901961 430:0.55686275 431:0.97647059 432:0.99215686 433:0.83137255 434:0.64705882 435:0.62745098 436:0.99215686 437:0.85882353 438:0.011764706 440:0.18039216 441:0.89411765 442:0.99215686 443:0.46666667 457:0.40392157 458:0.98039216 459:0.89019608 460:0.18431373 461:0.031372549 463:0.81176471 464:0.99215686 465:0.60784314 469:0.6627451 470:0.99215686 471:0.98039216 472:0.58431373 473:0.2745098 474:0.023529412 484:0.11372549 485:0.96862745 486:0.99215686 487:0.36078431 491:0.83529412 492:0.99215686 493:0.48627451 497:0.090196078 498:0.63137255 499:0.99215686 500:0.99215686 501:0.99215686 502:0.18039216 511:0.015686275 512:0.58431373 513:0.99215686 514:0.8 515:0.043137255 518:0.12156863 519:0.91372549 520:0.97647059 521:0.18431373 526:0.050980392 527:0.48627451 528:0.91372549 529:0.81960784 530:0.094117647 539:0.062745098 540:0.56862745 541:0.99215686 542:0.62352941 543:0.023529412 545:0.019607843 546:0.61176471 547:0.99215686 548:0.68235294 568:0.20392157 569:0.96078431 570:0.99215686 571:0.61568627 572:0.043137255 573:0.27058824 574:0.99215686 575:0.99215686 576:0.38431373 597:0.2627451 598:0.93333333 599:0.99215686 600:0.99215686 601:0.99215686 602:0.99215686 603:0.79607843 604:0.14117647 626:0.43529412 627:0.79607843 628:0.99215686 629:0.96862745 630:0.49019608 631:0.031372549 
0.54004788201749354 151:0.070588235 152:0.23529412 153:0.57647059 154:0.57647059 155:0.57647059 156:0.91372549 157:0.6 158:0.25882353 178:0.36078431 179:0.85490196 180:0.99607843 181:0.99607843 182:0.99607843 183:0.99607843 184:0.99607843 185:0.99607843 186:0.93333333 187:0.26666667 204:0.031372549 205:0.70196078 206:0.96862745 207:0.99607843 208:0.98431373 209:0.64705882 210:0.54901961 211:0.54901961 212:0.70588235 213:0.99607843 214:0.99607843 215:0.62352941 216:0.019607843 231:0.054901961 232:0.89411765 233:0.99607843 234:0.94509804 235:0.62745098 236:0.15294118 241:0.41568627 242:0.94117647 243:0.99607843 244:0.89019608 258:0.050980392 259:0.70588235 260:0.99607843 261:0.94509804 262:0.28235294 270:0.52156863 271:0.99607843 272:0.9254902 273:0.10196078 286:0.15294118 287:0.99607843 288:0.99607843 289:0.44705882 298:0.02745098 299:0.81176471 300:0.99607843 301:0.51372549 314:0.15294118 315:0.99607843 316:0.99607843 317:0.51372549 318:0.13333333 327:0.56470588 328:0.99607843 329:0.74117647 342:0.15294118 343:0.99607843 344:0.99607843 345:0.99607843 346:0.9254902 347:0.082352941 355:0.38823529 356:0.99607843 357:0.41568627 370:0.015686275 371:0.082352941 372:0.45882353 373:0.76078431 374:0.79607843 375:0.054901961 383:0.38823529 384:0.99607843 385:0.31764706 411:0.38823529 412:0.97647059 413:0.25098039 439:0.38823529 440:0.92941176 441:0.11764706 442:0.30588235 443:0.36470588 444:0.2627451 466:0.023529412 467:0.8 468:0.99607843 469:0.95686275 470:0.98823529 471:0.94901961 472:0.47843137 493:0.25882353 494:0.74117647 495:0.99607843 496:0.99607843 497:0.83921569 498:0.41176471 499:0.15294118 519:0.082352941 520:0.5372549 521:0.98823529 522:0.99607843 523:0.99607843 524:0.74509804 525:0.062745098 545:0.039215686 546:0.34509804 547:0.96862745 548:0.99607843 549:0.90588235 550:0.99607843 551:0.99607843 552:0.23921569 572:0.050980392 573:0.69019608 574:0.99607843 575:0.94509804 576:0.74117647 577:0.24313725 578:1 579:0.73333333 580:0.015686275 599:0.019607843 600:0.70196078 601:0.99607843 602:0.99607843 603:0.78431373 605:0.86666667 606:0.99607843 607:0.44313725 627:0.043137255 628:0.99607843 629:0.99607843 630:0.99607843 631:0.99607843 632:0.98039216 633:0.99607843 634:0.81176471 635:0.08627451 655:0.031372549 656:0.77254902 657:0.99607843 658:0.99607843 659:0.99607843 660:0.99607843 661:0.97254902 662:0.24705882 684:0.031372549 685:0.29411765 686:0.57254902 687:0.84313725 688:0.84313725 689:0.34117647 
0.92259960050159107 266:0.17647059 267:0.29411765 268:0.10980392 290:0.10980392 291:0.11764706 292:0.49019608 293:0.80784314 294:0.95686275 295:0.99215686 296:0.93333333 297:0.34117647 314:0.015686275 315:0.58431373 316:0.72156863 317:0.72156863 318:0.96862745 319:0.99215686 320:0.99215686 321:0.99215686 322:0.99215686 323:0.99215686 324:0.99215686 325:0.54117647 341:0.24313725 342:0.8745098 343:0.99215686 344:0.99215686 345:0.99215686 346:0.97647059 347:0.83529412 348:0.77647059 349:0.44705882 350:0.30980392 351:0.99215686 352:0.95686275 353:0.30588235 369:1 370:0.99215686 371:0.99215686 372:0.81960784 373:0.50588235 374:0.20784314 378:0.58431373 379:0.99215686 380:0.75686275 397:0.10196078 398:0.40784314 399:0.30980392 400:0.011764706 405:0.074509804 406:0.97647059 407:0.99215686 408:0.5254902 432:0.011764706 433:0.69019608 434:0.99215686 435:0.82352941 436:0.094117647 437:0.019607843 438:0.019607843 439:0.019607843 440:0.019607843 441:0.019607843 442:0.015686275 459:0.082352941 460:0.80784314 461:0.99215686 462:0.99215686 463:0.99215686 464:0.99215686 465:0.99215686 466:0.99215686 467:0.99607843 468:0.99215686 469:0.99607843 470:0.8627451 471:0.55686275 472:0.14509804 487:0.33333333 488:0.99215686 489:0.99215686 490:0.99215686 491:0.99215686 492:0.99215686 493:0.99215686 494:0.99215686 495:0.99215686 496:0.99215686 497:0.99215686 498:0.99215686 499:0.99215686 500:0.78039216 515:0.11372549 516:0.69803922 517:0.57254902 518:0.32941176 519:0.32941176 520:0.32941176 521:0.32941176 522:0.32941176 523:0.32941176 524:0.32941176 525:0.32941176 526:0.56470588 527:0.99215686 528:0.99215686 554:0.043137255 555:0.71372549 556:0.89411765 
0.63693434345129851 127:0.12156863 128:0.56470588 129:0.89411765 130:1 131:0.99607843 132:0.84705882 154:0.38431373 155:0.94509804 156:0.99607843 157:0.99607843 158:0.99607843 159:0.99607843 160:0.58431373 180:0.14509804 181:0.71372549 182:0.98823529 183:0.99607843 184:0.87843137 185:0.35294118 186:0.16078431 187:0.9372549 188:0.78431373 189:0.011764706 207:0.11372549 208:0.89803922 209:0.99607843 210:0.94117647 211:0.57647059 212:0.043137255 215:0.58431373 216:0.97647059 217:0.14509804 235:0.23529412 236:0.99607843 237:0.80392157 238:0.20392157 243:0.6745098 244:0.79215686 270:0.074509804 271:0.92941176 272:0.58823529 298:0.40392157 299:0.99607843 300:0.43529412 325:0.058823529 326:0.98039216 327:0.89019608 328:0.10588235 353:0.42352941 354:0.99607843 355:0.42745098 380:0.070588235 381:0.92156863 382:0.83921569 383:0.015686275 405:0.14509804 406:0.58431373 407:0.70588235 408:0.94509804 409:0.99607843 410:0.94509804 411:0.61568627 412:0.27843137 431:0.058823529 432:0.61568627 433:0.95294118 434:0.99607843 435:0.99607843 436:0.99607843 437:0.99607843 438:0.99607843 439:0.99607843 440:0.97647059 441:0.30196078 457:0.019607843 458:0.47843137 459:0.90196078 460:0.95686275 461:0.57254902 462:0.74901961 463:0.99607843 464:0.72156863 465:0.074509804 466:0.058823529 467:0.40392157 468:0.89411765 469:0.74117647 470:0.023529412 484:0.1372549 485:0.79607843 486:0.97647059 487:0.59215686 488:0.082352941 489:0.32941176 490:0.96862745 491:0.80392157 492:0.043137255 496:0.48235294 497:0.99607843 498:0.28235294 511:0.019607843 512:0.79607843 513:0.99607843 514:0.45098039 516:0.22745098 517:0.96862745 518:0.82352941 519:0.12156863 524:0.3254902 525:0.99607843 526:0.35294118 539:0.56078431 540:0.97647059 541:0.27843137 543:0.3254902 544:0.98039216 545:0.80392157 546:0.15686275 552:0.24313725 553:0.99607843 554:0.35294118 567:0.8 568:0.3372549 570:0.16862745 571:0.96470588 572:0.80784314 573:0.16078431 580:0.34509804 581:0.99607843 582:0.57254902 594:0.070588235 595:0.95686275 596:0.23529412 597:0.22745098 598:0.96470588 599:0.89411765 600:0.15686275 608:0.2 609:0.98431373 610:0.81568627 623:0.8 624:0.81568627 625:0.96862745 626:0.89019608 627:0.16078431 637:0.19215686 638:0.082352941 651:0.094117647 652:0.77254902 653:0.90980392 654:0.15686275 
1 153:0.16470588 154:0.64313725 155:0.99607843 156:0.99607843 157:0.99607843 158:0.52941176 180:0.16862745 181:0.90196078 182:0.99215686 183:0.99215686 184:0.99215686 185:0.99215686 186:0.98823529 187:0.53333333 207:0.16862745 208:0.89803922 209:0.99215686 210:0.85882353 211:0.55686275 212:0.67058824 213:0.99215686 214:0.99215686 215:0.81176471 235:0.49411765 236:0.94117647 237:0.4745098 238:0.050980392 240:0.25882353 241:0.99215686 242:0.99215686 243:0.6 264:0.72941176 265:0.094117647 268:0.25882353 269:0.99215686 270:0.99215686 271:0.30588235 292:0.066666667 296:0.44313725 297:0.99215686 298:0.91764706 299:0.19607843 323:0.41176471 324:0.96078431 325:0.99215686 326:0.35686275 351:0.79215686 352:0.99215686 353:0.92156863 354:0.19215686 378:0.24705882 379:0.95294118 380:0.92156863 381:0.28627451 405:0.25882353 406:0.83529412 407:0.99215686 408:0.7372549 432:0.08627451 433:0.74901961 434:0.99215686 435:0.92941176 436:0.30588235 460:0.61960784 461:0.99215686 462:0.99215686 463:0.34509804 488:0.71372549 489:0.99215686 490:0.68627451 491:0.062745098 516:0.87058824 517:0.99215686 518:0.17647059 544:0.87058824 545:0.99215686 546:0.17647059 572:0.81568627 573:0.99215686 574:0.52156863 575:0.023529412 600:0.36078431 601:0.99215686 602:0.99215686 603:0.50196078 609:0.043137255 628:0.15686275 629:0.88235294 630:0.99215686 631:0.87058824 632:0.56078431 633:0.18431373 634:0.054901961 635:0.14509804 636:0.56078431 637:0.77647059 638:0.19607843 657:0.15294118 658:0.87843137 659:0.98823529 660:0.99215686 661:0.99215686 662:0.99215686 663:0.99215686 664:0.63137255 665:0.4 687:0.38823529 688:0.87843137 689:0.99215686 690:0.88627451 691:0.48235294 692:0.16078431 
1 124:0.45098039 125:0.4627451 126:0.4627451 127:0.85490196 128:1 129:0.99607843 130:0.99607843 131:0.99607843 132:0.52941176 133:0.34901961 150:0.023529412 151:0.65490196 152:0.99215686 153:0.99215686 154:0.99215686 155:0.99215686 156:0.99215686 157:0.99215686 158:0.99215686 159:0.99215686 160:0.99215686 161:0.84313725 162:0.11372549 178:0.50588235 179:0.99215686 180:0.99215686 181:0.99215686 182:0.91372549 183:0.91372549 184:0.96078431 185:0.69411765 186:0.83921569 187:0.99215686 188:0.99215686 189:0.99215686 190:0.45490196 206:0.14509804 207:0.51372549 208:0.77647059 209:0.58431373 210:0.17647059 211:0.17647059 212:0.21568627 214:0.11764706 215:0.23921569 216:0.89411765 217:0.99215686 218:0.83137255 244:0.8627451 245:0.99215686 246:0.46666667 271:0.023529412 272:0.87058824 273:0.99215686 274:0.29411765 299:0.40784314 300:0.99215686 301:0.86666667 302:0.14509804 318:0.023529412 319:0.43529412 320:0.43529412 321:0.43529412 322:0.43529412 323:0.35294118 327:0.93333333 328:0.99215686 329:0.74901961 344:0.38823529 345:0.89019608 346:0.89411765 347:0.99215686 348:0.99215686 349:0.99215686 350:0.99215686 351:0.97254902 352:0.89019608 353:0.8745098 354:0.61568627 355:0.98823529 356:0.99215686 357:0.55686275 371:0.39215686 372:0.94901961 373:0.99215686 374:0.99215686 375:0.99215686 376:0.99215686 377:0.99215686 378:0.99215686 379:0.99215686 380:0.99215686 381:0.99215686 382:0.99215686 383:0.99215686 384:0.99215686 385:0.21176471 398:0.074509804 399:0.86666667 400:0.99215686 401:0.8627451 402:0.48235294 403:0.26666667 404:0.26666667 405:0.26666667 406:0.70196078 407:0.83921569 408:0.99215686 409:0.99215686 410:0.99215686 411:0.99215686 412:0.81568627 413:0.098039216 426:0.38039216 427:0.99215686 428:0.85098039 429:0.11372549 435:0.066666667 436:0.41960784 437:0.99215686 438:0.99215686 439:0.99215686 440:0.99215686 441:0.21176471 454:0.68627451 455:0.99215686 456:0.77647059 464:0.1254902 465:0.99215686 466:0.99215686 467:0.99215686 468:0.99215686 469:0.51764706 481:0.22745098 482:0.95294118 483:0.99215686 484:0.77647059 491:0.094117647 492:0.81568627 493:0.99215686 494:0.99215686 495:0.99215686 496:0.99215686 497:0.86666667 498:0.14509804 509:0.4627451 510:0.99215686 511:0.99215686 512:0.77647059 519:0.70196078 520:0.99215686 521:0.98039216 522:0.58823529 523:0.97254902 524:0.99215686 525:0.99215686 526:0.87058824 527:0.15294118 537:0.30980392 538:0.96862745 539:0.99215686 540:0.96470588 541:0.45490196 545:0.11764706 546:0.76470588 547:0.95686275 548:0.95686275 549:0.36078431 551:0.34509804 552:0.94901961 553:0.99215686 554:0.99215686 555:0.54901961 566:0.49411765 567:0.99215686 568:0.99215686 569:0.96470588 570:0.4627451 571:0.24705882 572:0.24705882 573:0.50588235 574:0.99215686 575:0.99215686 576:0.4627451 580:0.18431373 581:0.63529412 582:0.74901961 583:0.4 594:0.31764706 595:0.96862745 596:0.99215686 597:0.99215686 598:0.99215686 599:0.99215686 600:0.99215686 601:0.99215686 602:0.99215686 603:0.48235294 604:0.10196078 623:0.76862745 624:0.97254902 625:0.99215686 626:0.99215686 627:0.99215686 628:0.99215686 629:0.92156863 630:0.4745098 631:0.10196078 652:0.46666667 653:0.99215686 654:0.99215686 655:0.99215686 656:0.46666667 657:0.047058824 
0.61741749104339827 124:0.094117647 125:0.47843137 126:0.78039216 127:1 128:1 129:0.78039216 130:0.25882353 150:0.098039216 151:0.49803922 152:0.89019608 153:0.99215686 154:0.99215686 155:0.99215686 156:0.99215686 157:0.99215686 158:0.92941176 159:0.26666667 176:0.019607843 177:0.51764706 178:0.90980392 179:0.99215686 180:0.99215686 181:0.98823529 182:0.76470588 183:0.45882353 184:0.1254902 185:0.74901961 186:0.99215686 187:0.61176471 204:0.44705882 205:0.99215686 206:0.99215686 207:0.82352941 208:0.4 209:0.26666667 213:0.50980392 214:0.99215686 215:0.61176471 232:0.30588235 233:0.6745098 234:0.5372549 235:0.02745098 241:0.50980392 242:0.99215686 243:0.61176471 268:0.18823529 269:0.91764706 270:0.88235294 271:0.14509804 295:0.13333333 296:0.91372549 297:0.97647059 298:0.43529412 322:0.19607843 323:0.81176471 324:0.99215686 325:0.58039216 349:0.19607843 350:0.91764706 351:0.99215686 352:0.78823529 353:0.066666667 376:0.21568627 377:0.90980392 378:0.99215686 379:0.85882353 380:0.16470588 404:0.61568627 405:0.99215686 406:0.94509804 407:0.078431373 431:0.65490196 432:0.97254902 433:0.96470588 434:0.30980392 458:0.078431373 459:0.91372549 460:0.99215686 461:0.55294118 486:0.48627451 487:0.99215686 488:0.6745098 489:0.047058824 513:0.16470588 514:0.98431373 515:0.99215686 516:0.38039216 525:0.02745098 526:0.4627451 527:0.23921569 541:0.17254902 542:0.99215686 543:0.97647059 544:0.21960784 552:0.29411765 553:0.76078431 554:0.89019608 555:0.14901961 569:0.17254902 570:0.99215686 571:0.99215686 572:0.54901961 578:0.098039216 579:0.56470588 580:0.98823529 581:0.89019608 582:0.35294118 597:0.0039215686 598:0.4745098 599:0.98039216 600:0.99215686 601:0.83137255 602:0.55294118 603:0.55294118 604:0.55294118 605:0.76862745 606:0.98039216 607:0.99215686 608:0.9254902 609:0.28235294 627:0.28235294 628:0.89019608 629:0.99215686 630:0.99215686 631:0.99215686 632:0.99215686 633:0.99215686 634:0.99215686 635:0.88627451 636:0.15686275 656:0.090196078 657:0.29019608 658:0.59607843 659:0.99215686 660:0.99215686 661:0.77647059 662:0.29019608 663:0.090196078 
0.40849282993054953 182:0.047058824 183:0.5254902 184:0.79607843 185:0.70196078 186:0.43529412 187:0.039215686 208:0.26666667 209:0.56862745 210:0.97647059 211:0.99607843 212:0.99215686 213:0.99215686 214:0.99215686 215:0.77647059 216:0.023529412 235:0.27843137 236:0.94117647 237:0.99215686 238:0.99215686 239:0.92156863 240:0.8627451 241:0.99215686 242:0.99215686 243:0.99215686 244:0.52941176 261:0.047058824 262:0.32941176 263:0.93333333 264:0.99215686 265:0.99215686 266:0.81176471 267:0.16078431 268:0.035294118 269:0.4 270:0.92941176 271:0.99215686 272:0.76078431 273:0.039215686 289:0.35294118 290:0.99215686 291:0.99215686 292:0.90196078 293:0.3254902 294:0.015686275 298:0.6627451 299:0.99215686 300:0.99215686 301:0.18823529 316:0.28627451 317:0.9254902 318:0.99215686 319:0.76078431 320:0.43921569 326:0.6627451 327:0.99215686 328:0.90980392 329:0.13333333 344:0.6627451 345:0.99215686 346:0.89803922 347:0.1254902 354:0.6627451 355:0.99215686 356:0.70588235 371:0.1254902 372:0.94901961 373:0.90196078 374:0.21176471 381:0.054901961 382:0.79215686 383:0.99215686 384:0.70588235 399:0.082352941 400:0.85098039 401:0.85882353 402:0.10196078 409:0.14509804 410:0.99215686 411:0.89019608 412:0.17647059 428:0.6627451 429:0.99215686 430:0.96078431 431:0.18039216 437:0.59607843 438:0.99215686 439:0.75686275 464:0.098039216 465:0.99607843 466:0.99607843 467:0.50980392 491:0.0078431373 492:0.41176471 493:0.99215686 494:0.83921569 495:0.12156863 517:0.3372549 518:0.61568627 519:0.63921569 520:0.99215686 521:0.99215686 522:0.32941176 544:0.34901961 545:0.96470588 546:0.99215686 547:0.99607843 548:0.99215686 549:0.99215686 550:0.32941176 572:0.85490196 573:0.99215686 574:0.99215686 575:0.99607843 576:0.99215686 577:0.99215686 578:0.32941176 600:0.85490196 601:0.99215686 602:0.99215686 603:0.70980392 604:0.73333333 605:0.99215686 606:0.74509804 607:0.082352941 628:0.16078431 629:0.18823529 630:0.18823529 632:0.098039216 633:0.99215686 634:0.99215686 635:0.44313725 660:0.015686275 661:0.67058824 662:0.99215686 663:0.84705882 664:0.2745098 689:0.1254902 690:0.85098039 691:0.99215686 692:0.96862745 693:0.37647059 718:0.12156863 719:0.85882353 720:0.99215686 721:0.43529412 
0.39767871198438665 103:0.10980392 104:0.49411765 105:0.60784314 106:0.47058824 107:0.094117647 129:0.019607843 130:0.30196078 131:0.8627451 132:0.99215686 133:0.99215686 134:0.99215686 135:0.59607843 156:0.062745098 157:0.74117647 158:0.99215686 159:0.99215686 160:0.91372549 161:0.8745098 162:0.99215686 163:0.81568627 183:0.19607843 184:0.74901961 185:0.99215686 186:0.94117647 187:0.56862745 188:0.20784314 189:0.5254902 190:0.99215686 191:0.81568627 211:0.41176471 212:0.99215686 213:0.99215686 214:0.59607843 216:0.094117647 217:0.81960784 218:0.99215686 219:0.81568627 239:0.20392157 240:0.48627451 241:0.50588235 242:0.85098039 243:0.090196078 244:0.66666667 245:0.99215686 246:0.95294118 247:0.2627451 271:0.035294118 272:0.8 273:0.99215686 274:0.63921569 298:0.047058824 299:0.70196078 300:0.99215686 301:0.97254902 302:0.23529412 326:0.42352941 327:0.99215686 328:0.99215686 329:0.55686275 346:0.023529412 347:0.19607843 348:0.25882353 349:0.58431373 350:0.58431373 351:0.58039216 352:0.19607843 353:0.24313725 354:0.98823529 355:0.99215686 356:0.85490196 357:0.066666667 372:0.20392157 373:0.5254902 374:0.82352941 375:0.99215686 376:0.99215686 377:0.99215686 378:0.99215686 379:0.99215686 380:0.99215686 381:0.99215686 382:0.99215686 383:0.9372549 384:0.17254902 398:0.10196078 399:0.49019608 400:0.94509804 401:0.99215686 402:0.96470588 403:0.75686275 404:0.60392157 405:0.4627451 406:0.44705882 407:0.85490196 408:0.99215686 409:0.99215686 410:0.99215686 411:0.20784314 425:0.12156863 426:0.83921569 427:0.99215686 428:0.94509804 429:0.54901961 430:0.1372549 434:0.11372549 435:0.82745098 436:0.99215686 437:0.99215686 438:0.99215686 439:0.91764706 440:0.27058824 453:0.71372549 454:0.99215686 455:0.71372549 456:0.047058824 461:0.21176471 462:0.85490196 463:0.99215686 464:0.92941176 465:0.41568627 466:0.90196078 467:0.99215686 468:0.89019608 469:0.16078431 471:0.050980392 472:0.2745098 481:0.99607843 482:0.99215686 483:0.34901961 488:0.37254902 489:0.96862745 490:0.99215686 491:0.94509804 492:0.23529412 494:0.18431373 495:0.9372549 496:0.99215686 497:0.67058824 498:0.02745098 499:0.41176471 500:0.99215686 509:0.99607843 510:0.99215686 511:0.34901961 514:0.039215686 515:0.59607843 516:0.97647059 517:0.99215686 518:0.80784314 519:0.24705882 523:0.48235294 524:0.99215686 525:0.99215686 526:0.77647059 527:0.98431373 528:0.99215686 537:0.94509804 538:0.99215686 539:0.34901961 541:0.21176471 542:0.7372549 543:0.99215686 544:0.99215686 545:0.74117647 546:0.039215686 551:0.047058824 552:0.83921569 553:0.99607843 554:0.99215686 555:0.96862745 556:0.54901961 565:0.47058824 566:0.99215686 567:0.83137255 568:0.74117647 569:0.91764706 570:0.99215686 571:0.99215686 572:0.6 573:0.058823529 580:0.18039216 581:0.61176471 582:0.63921569 583:0.22352941 593:0.094117647 594:0.89411765 595:0.99215686 596:0.99215686 597:0.94117647 598:0.77254902 599:0.29803922 600:0.0039215686 622:0.34509804 623:0.6 624:0.6 625:0.2745098 
1 95:0.14509804 96:0.37647059 97:0.37647059 98:0.37647059 99:0.37647059 100:0.38039216 101:0.84313725 102:0.99607843 103:0.99607843 104:0.60392157 123:0.84313725 124:0.99215686 125:0.99215686 126:0.99215686 127:0.99215686 128:0.99607843 129:0.99215686 130:0.99215686 131:0.99215686 132:0.99215686 133:0.4745098 151:1 152:0.99215686 153:0.99215686 154:0.99215686 155:0.99215686 156:1 157:0.99215686 158:0.99215686 159:0.99215686 160:0.99215686 161:0.62352941 179:0.35686275 180:0.74117647 181:0.74117647 182:0.74117647 183:0.74117647 184:0.74509804 185:0.92941176 186:0.99215686 187:0.99215686 188:0.99215686 189:0.47058824 213:0.74901961 214:0.99215686 215:0.99215686 216:0.99215686 240:0.61176471 241:0.99607843 242:0.99607843 243:0.99607843 244:0.76078431 266:0.11372549 267:0.51764706 268:1 269:0.99215686 270:0.99215686 271:0.7254902 272:0.094117647 293:0.25490196 294:0.93333333 295:0.99215686 296:1 297:0.99215686 298:0.74117647 299:0.062745098 320:0.035294118 321:0.62352941 322:0.99215686 323:0.99215686 324:0.99607843 325:0.7254902 326:0.062745098 348:0.51764706 349:0.99215686 350:0.99215686 351:0.99215686 352:0.37254902 353:0.094117647 375:0.61176471 376:1 377:0.80784314 378:0.47058824 402:0.4745098 403:0.99607843 404:0.89803922 405:0.43529412 429:0.12941176 430:0.80784314 431:0.80784314 432:0.12156863 455:0.035294118 456:0.25098039 457:0.60784314 458:0.12156863 459:0.078431373 483:0.1254902 484:0.99215686 485:0.74117647 511:0.12941176 512:1 513:0.74509804 526:0.28627451 527:0.18823529 539:0.1254902 540:0.99215686 541:0.92941176 542:0.74901961 543:0.51764706 544:0.1254902 545:0.1254902 546:0.1254902 547:0.1254902 548:0.36470588 549:0.27843137 550:0.44313725 551:0.74901961 552:0.74901961 553:0.75294118 554:0.93333333 555:0.87058824 556:0.56078431 567:0.44313725 568:0.99215686 569:0.99215686 570:0.99215686 571:0.99607843 572:0.99215686 573:0.99215686 574:0.99215686 575:0.99215686 576:0.99607843 577:0.99215686 578:0.99215686 579:0.99215686 580:0.99215686 581:0.99607843 582:0.99215686 583:0.99215686 584:0.74117647 595:0.2 596:0.99215686 597:0.99215686 598:0.99215686 599:0.99607843 600:0.99215686 601:0.99215686 602:0.99215686 603:0.99215686 604:0.99607843 605:0.99215686 606:0.99215686 607:0.99215686 608:0.99215686 609:0.99607843 610:0.96078431 611:0.74117647 612:0.16470588 623:0.1254902 624:0.99215686 625:0.99215686 626:0.99215686 627:0.99607843 628:0.99215686 629:0.99215686 630:0.99215686 631:0.99215686 632:0.99607843 633:0.99215686 634:0.99215686 635:0.83529412 636:0.76078431 637:0.37254902 638:0.3254902 
0.71469697538284527 147:0.32156863 148:0.64705882 149:1 150:1 151:0.99607843 152:0.85098039 153:0.57254902 154:0.30196078 155:0.031372549 174:0.34509804 175:0.96078431 176:0.99215686 177:0.99215686 178:0.99215686 179:0.99215686 180:0.99215686 181:0.99215686 182:0.99215686 183:0.78039216 184:0.50196078 185:0.10196078 201:0.0039215686 202:0.7254902 203:0.99215686 204:0.89803922 205:0.54509804 206:0.54509804 207:0.54509804 208:0.54509804 209:0.94117647 210:0.99215686 211:0.99215686 212:0.99215686 213:0.71372549 214:0.0078431373 229:0.1254902 230:0.94901961 231:0.71764706 237:0.02745098 238:0.4 239:0.79607843 240:0.99215686 241:0.99215686 242:0.44313725 258:0.49411765 259:0.50588235 267:0.094117647 268:0.94901961 269:0.99215686 270:0.61176471 287:0.047058824 296:0.55294118 297:0.99215686 298:0.95294118 299:0.035294118 324:0.50980392 325:0.99215686 326:0.99215686 327:0.039215686 352:0.50980392 353:0.99215686 354:0.99215686 355:0.039215686 380:0.89803922 381:0.99215686 382:0.99215686 383:0.039215686 407:0.078431373 408:0.94509804 409:0.99215686 410:0.74901961 411:0.015686275 435:0.51372549 436:0.99215686 437:0.99215686 438:0.61176471 462:0.10980392 463:0.89411765 464:0.99215686 465:0.8745098 466:0.11764706 490:0.49803922 491:0.99215686 492:0.99215686 493:0.65882353 517:0.054901961 518:0.9254902 519:0.99215686 520:0.76078431 521:0.066666667 545:0.51764706 546:0.99215686 547:0.99215686 548:0.48627451 572:0.090196078 573:0.93333333 574:0.99215686 575:0.90196078 576:0.18039216 600:0.34117647 601:0.99215686 602:0.99215686 603:0.4627451 628:0.34117647 629:0.99215686 630:0.99215686 631:0.64313725 632:0.55294118 633:0.55294118 634:0.55294118 635:0.55294118 636:0.55294118 637:0.55294118 638:0.53333333 639:0.30980392 656:0.34117647 657:0.99215686 658:0.99215686 659:0.99215686 660:0.99215686 661:0.99215686 662:0.99215686 663:0.99215686 664:0.99215686 665:0.88235294 666:0.62352941 684:0.050980392 685:0.74117647 686:0.99215686 687:0.99215686 688:0.99215686 689:0.89411765 690:0.74901961 691:0.56862745 692:0.28235294 693:0.08627451 
0.48028705444071246 120:0.18823529 121:0.5254902 122:0.99215686 123:1 124:0.99215686 125:0.67843137 126:0.28235294 147:0.17254902 148:0.86666667 149:0.98431373 150:0.98431373 151:0.99215686 152:0.98431373 153:0.98431373 154:0.9254902 155:0.74509804 156:0.1254902 157:0.031372549 174:0.18823529 175:0.86666667 176:0.98431373 177:0.98431373 178:0.98431373 179:0.99215686 180:0.98431373 181:0.98431373 182:0.98431373 183:0.98431373 184:0.99215686 185:0.24313725 202:0.37647059 203:0.98431373 204:0.98431373 205:0.76862745 206:0.7372549 207:0.83529412 208:0.98431373 209:0.98431373 210:0.98431373 211:0.98431373 212:0.99215686 213:0.78823529 230:0.14117647 231:0.36862745 232:0.36862745 233:0.047058824 235:0.14117647 236:0.83137255 237:0.98431373 238:0.98431373 239:0.98431373 240:0.99215686 241:0.8627451 264:0.078431373 265:0.80784314 266:0.99215686 267:0.99215686 268:1 269:0.99215686 270:0.49411765 293:0.43529412 294:0.97254902 295:0.98431373 296:0.99215686 297:0.98431373 298:0.49411765 322:0.86666667 323:0.98431373 324:0.99215686 325:0.98431373 326:0.49411765 349:0.1254902 350:0.89803922 351:0.98431373 352:0.99215686 353:0.8745098 354:0.058823529 377:0.49803922 378:0.98431373 379:0.98431373 380:0.99215686 381:0.4745098 405:0.50196078 406:0.99215686 407:0.99215686 408:1 409:0.86666667 433:0.49803922 434:0.98431373 435:0.98431373 436:0.99215686 437:0.39607843 460:0.062745098 461:0.74117647 462:0.98431373 463:0.98431373 464:0.80392157 465:0.12156863 487:0.094117647 488:0.72941176 489:0.98431373 490:0.98431373 491:0.98431373 492:0.074509804 497:0.094117647 498:0.71372549 499:0.43529412 515:0.37647059 516:0.98431373 517:0.98431373 518:0.98431373 519:0.98431373 525:0.76078431 526:0.98431373 527:0.8 528:0.074509804 543:0.60784314 544:0.99215686 545:0.99215686 546:0.99215686 547:0.99215686 548:1 549:0.52156863 550:0.37647059 551:0.047058824 553:1 554:0.99215686 555:0.99215686 556:0.35686275 571:0.91372549 572:0.98431373 573:0.98431373 574:0.98431373 575:0.98431373 576:0.99215686 577:0.98431373 578:0.98431373 579:0.77254902 580:0.74509804 581:0.99215686 582:0.98431373 583:0.98431373 584:0.27058824 599:0.18823529 600:0.55294118 601:0.98431373 602:0.98431373 603:0.98431373 604:0.99215686 605:0.98431373 606:0.98431373 607:0.98431373 608:0.98431373 609:0.99215686 610:0.98431373 611:0.7372549 612:0.058823529 628:0.015686275 629:0.43137255 630:0.8 631:0.98431373 632:0.99215686 633:0.98431373 634:0.98431373 635:0.98431373 636:0.98431373 637:0.89803922 638:0.65882353 639:0.058823529 658:0.094117647 659:0.36862745 660:0.6 661:0.51764706 662:0.36862745 663:0.36862745 664:0.36862745 665:0.23137255 
0.18147452151211332 98:0.45098039 99:1 100:0.66666667 125:0.0078431373 126:0.75294118 127:0.99215686 128:0.95686275 129:0.46666667 130:0.17254902 153:0.4745098 154:0.99215686 155:0.99215686 156:0.99215686 157:0.99215686 158:0.97254902 159:0.49803922 180:0.48235294 181:0.95294118 182:0.99215686 183:0.99215686 184:0.99215686 185:0.99215686 186:0.99215686 187:0.68627451 207:0.031372549 208:0.82745098 209:0.99215686 210:0.99215686 211:0.95294118 212:0.094117647 213:0.72941176 214:0.99215686 215:0.96862745 216:0.30196078 235:0.047058824 236:0.89411765 237:0.99215686 238:0.85098039 239:0.18823529 241:0.25098039 242:0.97647059 243:0.99215686 244:0.50588235 264:0.34901961 265:0.51764706 266:0.094117647 270:0.9372549 271:0.99215686 272:0.50588235 298:0.9372549 299:0.99215686 300:0.50588235 325:0.29411765 326:0.98431373 327:0.99215686 328:0.50588235 353:0.34901961 354:0.99215686 355:0.99215686 356:0.50588235 381:0.50196078 382:0.99215686 383:0.99215686 384:0.18039216 403:0.17254902 404:0.56862745 405:0.57647059 406:0.97647059 407:0.97647059 408:0.97647059 409:0.98823529 410:0.99215686 411:0.81960784 412:0.043137255 429:0.039215686 430:0.62745098 431:0.96470588 432:0.99215686 433:0.99215686 434:0.92156863 435:0.78039216 436:0.99215686 437:0.99215686 438:0.99215686 439:0.92156863 440:0.21960784 456:0.22745098 457:0.90980392 458:0.99215686 459:0.9372549 460:0.60392157 461:0.1254902 462:0.047058824 463:0.28235294 464:0.98823529 465:0.99215686 466:0.99215686 467:0.99215686 468:0.93333333 469:0.22352941 483:0.23137255 484:0.92156863 485:0.99215686 486:0.78039216 487:0.2 490:0.062745098 491:0.85490196 492:0.99215686 493:0.99215686 494:0.83137255 495:0.90588235 496:0.99215686 497:0.91764706 498:0.10196078 511:0.74901961 512:0.99215686 513:0.86666667 514:0.031372549 517:0.24705882 518:0.76078431 519:0.99215686 520:0.99215686 521:0.78823529 522:0.070588235 523:0.34901961 524:0.99215686 525:0.99215686 526:0.34117647 538:0.25098039 539:0.98039216 540:0.90588235 541:0.19215686 543:0.23529412 544:0.52941176 545:0.94117647 546:0.99215686 547:0.99215686 548:0.77647059 549:0.078431373 551:0.30980392 552:0.99215686 553:0.99215686 554:0.81960784 566:0.36862745 567:0.99215686 568:0.81568627 569:0.45098039 570:0.73333333 571:0.97647059 572:0.99215686 573:0.99215686 574:0.96862745 575:0.79607843 576:0.066666667 579:0.043137255 580:0.89411765 581:0.99215686 582:0.95294118 594:0.28627451 595:0.98431373 596:0.99215686 597:0.99215686 598:0.99215686 599:0.99215686 600:0.99215686 601:0.63137255 602:0.14117647 608:0.4 609:0.99215686 610:0.6 623:0.62352941 624:0.99215686 625:0.99215686 626:0.99215686 627:0.63529412 628:0.32156863 629:0.031372549 636:0.015686275 637:0.18039216 638:0.02745098 
0.26584392086978903 93:0.074509804 94:0.78823529 95:0.84705882 96:0.5254902 97:0.21568627 121:0.30980392 122:0.99215686 123:0.99215686 124:0.99607843 125:0.94901961 126:0.32156863 149:0.094117647 150:0.65490196 151:0.92156863 152:0.99607843 153:0.99215686 154:0.89803922 155:0.68627451 156:0.27843137 179:0.20784314 180:0.72941176 181:0.99215686 182:0.99215686 183:0.99215686 184:0.96078431 185:0.20784314 208:0.054901961 209:0.7254902 210:0.99215686 211:0.99215686 212:0.99215686 213:0.76470588 214:0.058823529 237:0.031372549 238:0.38431373 239:0.85882353 240:0.99607843 241:1 242:0.53333333 267:0.14117647 268:0.85490196 269:0.99607843 270:0.92156863 271:0.29019608 296:0.11764706 297:0.8745098 298:0.99215686 299:0.68235294 300:0.12156863 320:0.098039216 321:0.18431373 322:0.53333333 323:0.39215686 324:0.53333333 325:0.67058824 326:0.99215686 327:0.68235294 328:0.44313725 346:0.56078431 347:0.76470588 348:0.90588235 349:0.99215686 350:0.99215686 351:0.99215686 352:0.99215686 353:0.99607843 354:0.99215686 355:0.92156863 356:0.9372549 357:0.17647059 372:0.1372549 373:0.87843137 374:0.99607843 375:0.99607843 376:1 377:0.99607843 378:0.99607843 379:0.99607843 380:0.99607843 381:1 382:0.99607843 383:0.99607843 384:0.99607843 385:0.99607843 386:0.3254902 400:0.78431373 401:0.99215686 402:0.99215686 403:0.99215686 404:0.99607843 405:0.9254902 406:0.91372549 407:0.91372549 408:0.76470588 409:0.82745098 410:0.74509804 411:0.99215686 412:0.99215686 413:0.99215686 414:0.96078431 415:0.3372549 427:0.074509804 428:0.88627451 429:0.99215686 430:0.99215686 431:0.7254902 432:0.30588235 433:0.047058824 438:0.4627451 439:0.99215686 440:0.99215686 441:0.99215686 442:0.99607843 443:0.96862745 444:0.47843137 455:0.29019608 456:0.99215686 457:0.99215686 458:0.64313725 459:0.047058824 465:0.1254902 466:0.89411765 467:0.99215686 468:0.99215686 469:0.99215686 470:0.99607843 471:0.99215686 472:0.96862745 473:0.36078431 474:0.094117647 483:0.61176471 484:0.99215686 485:0.99215686 486:0.45882353 492:0.29803922 493:0.67058824 494:0.99215686 495:0.99215686 496:0.7254902 497:0.22745098 498:0.84705882 499:0.99215686 500:0.99215686 501:0.99215686 502:0.75686275 511:0.90980392 512:0.99607843 513:0.99607843 514:0.45882353 518:0.074509804 519:0.43921569 520:0.90588235 521:1 522:0.99607843 523:0.92156863 524:0.058823529 527:0.84313725 528:0.90588235 529:0.87058824 530:0.85490196 539:0.58039216 540:0.99215686 541:0.99215686 542:0.90980392 543:0.54509804 544:0.4627451 545:0.63529412 546:0.88627451 547:0.99215686 548:0.99215686 549:0.99607843 550:0.9254902 551:0.36862745 555:0.12941176 556:0.094117647 557:0.070588235 558:0.058823529 567:0.16078431 568:0.94509804 569:0.99215686 570:0.99215686 571:0.99215686 572:0.99607843 573:0.99215686 574:0.99215686 575:0.99215686 576:0.99215686 577:0.92156863 578:0.22352941 596:0.41960784 597:0.69019608 598:0.92156863 599:0.99215686 600:0.99607843 601:0.99215686 602:0.7372549 603:0.95686275 604:0.69019608 605:0.20784314 626:0.1254902 627:0.37647059 628:0.60784314 629:0.57647059 630:0.070588235 631:0.17647059 
0.24435924962887942 156:0.015686275 157:0.21960784 158:0.56470588 159:0.76470588 160:0.70980392 161:0.054901961 182:0.043137255 183:0.5254902 184:0.83529412 185:0.99607843 186:0.99607843 187:0.99607843 188:0.99607843 189:0.27058824 208:0.098039216 209:0.49019608 210:0.92941176 211:0.99607843 212:0.78039216 213:0.74117647 214:0.39607843 215:0.80784314 216:0.99607843 217:0.64313725 234:0.02745098 235:0.50980392 236:0.91372549 237:0.98431373 238:0.75686275 239:0.43529412 240:0.023529412 243:0.70588235 244:0.99607843 245:0.64313725 261:0.2 262:0.79215686 263:0.99607843 264:0.88627451 265:0.41176471 271:0.70588235 272:0.95686275 273:0.30196078 287:0.058823529 288:0.39215686 289:0.91372549 290:0.91372549 291:0.45098039 292:0.062745098 298:0.1372549 299:0.96862745 300:0.65882353 314:0.21960784 315:0.80392157 316:0.99607843 317:0.64705882 318:0.074509804 326:0.77647059 327:0.99607843 328:0.3372549 342:0.64705882 343:0.98431373 344:0.60784314 345:0.0078431373 352:0.011764706 353:0.52941176 354:0.99215686 355:0.48627451 356:0.0078431373 370:0.49803922 371:0.61568627 380:0.062745098 381:0.99607843 382:0.77647059 383:0.070588235 398:0.64705882 399:0.14117647 407:0.047058824 408:0.70588235 409:0.94509804 410:0.098039216 425:0.015686275 426:0.57254902 427:0.02745098 434:0.0039215686 435:0.40784314 436:0.97254902 437:0.27058824 462:0.27058824 463:0.99607843 464:0.59607843 466:0.062745098 467:0.18431373 489:0.11372549 490:0.83137255 491:0.8 492:0.02745098 494:0.5254902 495:0.047058824 517:0.58823529 518:0.98431373 519:0.25490196 522:0.52156863 544:0.18431373 545:0.94509804 546:0.94117647 549:0.43921569 550:0.65882353 551:0.070588235 571:0.050980392 572:0.7254902 573:0.9372549 574:0.24705882 575:0.074509804 576:0.31764706 577:0.77254902 578:0.88235294 579:0.78039216 580:0.02745098 599:0.57254902 600:0.99607843 601:0.90588235 602:0.5372549 603:0.94117647 604:0.99607843 605:0.99607843 606:0.99607843 607:0.95294118 608:0.066666667 626:0.39215686 627:0.98431373 628:0.99607843 629:0.99607843 630:0.99607843 631:0.99607843 632:0.99607843 633:0.76078431 634:0.45490196 635:0.17647059 653:0.070588235 654:0.88235294 655:0.99607843 656:0.99607843 657:0.89411765 658:0.65882353 659:0.18431373 660:0.039215686 661:0.011764706 681:0.2745098 682:0.99607843 683:0.78039216 684:0.4627451 685:0.090196078 
0.89640798533250976 97:0.29803922 98:0.63921569 99:0.63921569 100:1 101:0.99607843 102:0.81568627 103:0.23921569 124:0.35294118 125:0.98039216 126:0.99215686 127:0.99215686 128:0.93333333 129:0.97647059 130:0.99215686 131:0.78431373 132:0.062745098 151:0.37254902 152:0.95686275 153:0.99215686 154:0.99215686 155:0.76078431 156:0.22745098 157:0.3372549 158:0.87058824 159:0.99215686 160:0.33333333 178:0.18039216 179:0.99607843 180:0.99215686 181:0.98039216 182:0.76862745 183:0.16078431 186:0.50196078 187:0.99215686 188:0.63529412 205:0.054901961 206:0.90980392 207:0.99607843 208:0.91372549 209:0.29411765 214:0.50196078 215:0.99215686 216:0.63529412 233:0.02745098 234:0.60784314 235:0.81568627 236:0.43137255 242:0.50196078 243:0.99607843 244:0.63921569 263:0.15294118 270:0.70196078 271:0.99215686 272:0.55686275 297:0.031372549 298:0.87058824 299:0.99215686 300:0.28235294 325:0.23921569 326:0.99215686 327:0.99215686 328:0.28235294 350:0.15686275 351:0.35686275 352:0.36078431 353:0.71764706 354:0.99215686 355:0.96470588 356:0.18039216 376:0.34509804 377:0.94509804 378:0.99607843 379:0.99607843 380:1 381:0.99607843 382:0.99607843 383:0.66666667 403:0.67058824 404:0.98823529 405:0.96078431 406:0.50196078 407:0.42352941 408:0.5254902 409:0.97647059 410:0.99215686 411:0.58823529 429:0.039215686 430:0.62352941 431:0.99607843 432:0.78039216 433:0.17254902 436:0.19607843 437:0.95686275 438:0.99215686 439:0.74117647 456:0.011764706 457:0.51764706 458:0.99215686 459:0.81960784 460:0.039215686 464:0.63921569 465:0.99215686 466:0.99215686 467:0.97647059 468:0.25098039 484:0.52156863 485:0.99215686 486:0.7372549 491:0.12941176 492:0.89411765 493:0.99215686 494:0.99215686 495:0.99215686 496:0.63529412 500:0.02745098 501:0.10196078 511:0.31764706 512:0.99607843 513:0.84705882 514:0.10196078 519:0.71372549 520:1 521:0.99607843 522:0.99607843 523:0.99607843 524:0.63921569 527:0.094117647 528:0.72156863 538:0.062745098 539:0.78431373 540:0.96078431 541:0.31764706 546:0.34901961 547:0.97254902 548:0.99607843 549:0.99215686 550:0.99215686 551:0.99215686 552:0.63529412 554:0.2 555:0.8 556:0.26666667 566:0.28627451 567:0.99215686 568:0.84705882 573:0.35294118 574:0.96078431 575:0.99215686 576:0.99607843 577:0.99215686 578:0.99215686 579:0.99215686 580:0.68627451 581:0.34901961 582:0.93333333 583:0.67058824 594:0.28627451 595:0.99215686 596:0.84705882 600:0.34901961 601:0.96078431 602:0.99215686 603:0.96470588 604:0.79607843 605:0.96078431 606:0.99215686 607:0.99215686 608:0.99215686 609:0.99607843 610:0.8745098 611:0.15686275 622:0.082352941 623:0.81568627 624:0.94901961 625:0.43137255 626:0.35686275 627:0.71372549 628:0.97254902 629:0.99215686 630:0.99215686 631:0.38431373 633:0.16470588 634:0.76470588 635:0.99215686 636:0.99215686 637:0.53333333 638:0.12156863 
0.23747735095514361 121:0.078431373 122:0.6 123:0.65490196 124:0.99607843 125:1 126:0.85882353 127:0.72156863 128:0.63137255 129:0.57254902 130:0.15686275 149:0.39215686 150:0.84705882 151:0.84705882 152:0.84705882 153:0.84705882 154:0.84705882 155:0.84705882 156:0.94117647 157:0.99607843 158:0.94901961 159:0.52941176 160:0.011764706 184:0.14117647 185:0.21960784 186:0.67058824 187:0.99607843 188:0.50980392 214:0.40784314 215:0.99607843 216:0.80784314 242:0.47843137 243:0.99607843 244:0.53333333 269:0.14901961 270:0.95294118 271:0.8627451 272:0.039215686 296:0.090196078 297:0.81568627 298:0.99607843 299:0.43921569 323:0.08627451 324:0.83529412 325:0.99607843 326:0.51764706 327:0.011764706 350:0.098039216 351:0.80784314 352:0.96862745 353:0.50196078 354:0.035294118 378:0.75294118 379:0.99607843 380:0.46666667 405:0.55294118 406:0.99607843 407:0.39607843 431:0.011764706 432:0.41176471 433:0.97647059 434:0.78431373 435:0.031372549 458:0.0078431373 459:0.24705882 460:0.99607843 461:0.8745098 462:0.08627451 486:0.29803922 487:0.99607843 488:0.89411765 489:0.023529412 513:0.16862745 514:0.9372549 515:0.88235294 516:0.15686275 541:0.3254902 542:0.98039216 543:0.37647059 551:0.031372549 552:0.070588235 553:0.10196078 554:0.28235294 555:0.015686275 568:0.02745098 569:0.89803922 570:0.80784314 577:0.35294118 578:0.70196078 579:0.81176471 580:0.97254902 581:0.69411765 582:0.19607843 596:0.17647059 597:0.99607843 598:0.85098039 599:0.22352941 600:0.22352941 601:0.57647059 602:0.59215686 603:0.72941176 604:0.96470588 605:0.99215686 606:0.90196078 607:0.6627451 608:0.2 609:0.0078431373 624:0.019607843 625:0.83529412 626:0.99607843 627:0.99607843 628:0.99607843 629:0.99607843 630:0.99607843 631:0.95294118 632:0.78823529 633:0.3254902 634:0.08627451 653:0.28235294 654:0.62352941 655:0.65098039 656:0.73333333 657:0.62352941 658:0.30980392 659:0.16078431 
1 231:0.10980392 232:0.15294118 233:0.15294118 234:0.15294118 235:0.8 236:0.91372549 237:0.91372549 238:0.91372549 239:0.92156863 240:0.56078431 241:0.047058824 259:0.68627451 260:0.98431373 261:0.98431373 262:0.98431373 263:0.98431373 264:0.98431373 265:0.98431373 266:0.98431373 267:0.99215686 268:0.98431373 269:0.29803922 285:0.14509804 286:0.60784314 287:0.87058824 288:0.98431373 289:0.98431373 290:0.98431373 291:0.98431373 292:0.98431373 293:0.98431373 294:0.98431373 295:0.99215686 296:0.98431373 297:0.29803922 313:0.87843137 314:0.98431373 315:0.98431373 316:0.98431373 317:0.98431373 318:0.98431373 319:0.98431373 320:0.98431373 321:0.98431373 322:0.98431373 323:0.99215686 324:0.98431373 325:0.35294118 326:0.0078431373 341:0.68235294 342:0.81960784 343:0.76862745 344:0.67843137 345:0.67843137 346:0.67843137 347:0.67843137 348:0.77254902 349:0.98431373 350:0.98431373 351:0.99215686 352:0.98431373 353:0.98431373 354:0.070588235 370:0.21176471 371:0.1372549 376:0.30588235 377:0.98431373 378:0.98431373 379:0.99215686 380:0.98431373 381:0.61176471 382:0.035294118 403:0.062745098 404:0.83137255 405:0.98431373 406:0.98431373 407:0.99215686 408:0.98431373 409:0.29803922 431:0.078431373 432:0.99215686 433:0.99215686 434:0.99215686 435:1 436:0.99215686 437:0.4627451 438:0.23137255 439:0.23137255 440:0.23137255 441:0.23137255 442:0.23137255 443:0.10588235 459:0.078431373 460:0.98431373 461:0.98431373 462:0.98431373 463:0.99215686 464:0.98431373 465:0.98431373 466:0.98431373 467:0.98431373 468:0.98431373 469:0.98431373 470:0.98431373 471:0.69803922 472:0.10588235 487:0.078431373 488:0.98431373 489:0.98431373 490:0.98431373 491:0.99215686 492:0.98431373 493:0.98431373 494:0.98431373 495:0.98431373 496:0.98431373 497:0.98431373 498:0.98431373 499:0.98431373 500:0.75294118 515:0.078431373 516:0.9372549 517:0.91372549 518:0.98431373 519:0.99215686 520:0.98431373 521:0.98431373 522:0.98431373 523:0.98431373 524:0.98431373 525:0.98431373 526:0.98431373 527:0.49019608 528:0.070588235 543:0.047058824 544:0.41960784 545:0.32941176 546:0.89803922 547:0.99215686 548:0.98431373 549:0.98431373 550:0.98431373 551:0.98431373 552:0.98431373 553:0.98431373 554:0.98431373 555:0.45098039 574:0.29019608 575:0.51764706 576:0.98431373 577:0.98431373 578:0.98431373 579:0.98431373 580:0.98431373 581:0.98431373 582:0.98431373 583:0.45098039 603:0.035294118 604:0.14509804 605:0.14509804 606:0.14509804 607:0.14509804 608:0.14509804 609:0.73333333 610:0.14509804 611:0.066666667 
1 148:0.039215686 149:0.79607843 150:1 151:1 152:0.99607843 153:1 154:0.89019608 155:0.50980392 156:0.50980392 157:0.50980392 158:0.11764706 159:0.0078431373 176:0.070588235 177:0.97254902 178:0.99215686 179:0.98431373 180:0.97647059 181:0.99215686 182:0.99215686 183:0.99215686 184:0.99215686 185:0.99215686 186:0.99215686 187:0.61176471 188:0.36078431 189:0.031372549 205:0.25882353 206:0.72941176 207:0.54509804 208:0.29019608 209:0.43529412 210:0.78039216 211:0.92156863 212:0.97647059 213:0.99215686 214:0.99215686 215:0.99215686 216:0.99215686 217:0.82352941 218:0.090196078 240:0.31372549 241:0.55294118 242:0.9254902 243:0.99215686 244:0.99215686 245:0.99215686 246:0.82352941 247:0.043137255 270:0.1254902 271:0.89019608 272:0.99215686 273:0.99215686 274:0.99215686 275:0.36862745 297:0.043137255 298:0.30196078 299:0.93333333 300:0.99215686 301:0.99215686 302:0.99215686 303:0.55294118 324:0.50196078 325:0.75686275 326:0.99215686 327:0.99215686 328:0.99215686 329:0.99215686 330:0.99215686 331:0.4745098 352:0.75294118 353:0.99215686 354:0.99215686 355:0.99215686 356:0.99215686 357:0.99215686 358:0.81568627 359:0.054901961 378:0.050980392 379:0.57647059 380:0.9254902 381:0.99215686 382:0.92156863 383:0.77254902 384:0.77254902 385:0.34901961 386:0.02745098 406:0.34117647 407:0.99215686 408:0.99215686 409:0.65882353 410:0.18039216 433:0.28235294 434:0.9254902 435:0.99215686 436:0.42352941 437:0.054901961 460:0.19607843 461:0.77254902 462:0.99215686 463:0.65882353 464:0.054901961 487:0.2745098 488:0.92941176 489:0.99215686 490:0.81568627 491:0.050980392 514:0.27058824 515:0.93333333 516:0.99215686 517:0.9254902 518:0.50588235 540:0.02745098 541:0.65098039 542:0.9372549 543:0.99215686 544:0.92941176 545:0.27058824 568:0.074509804 569:0.99215686 570:0.99215686 571:0.6745098 572:0.098039216 580:0.14509804 581:0.23921569 582:0.19215686 596:0.51372549 597:0.99215686 598:0.88235294 599:0.035294118 604:0.31764706 605:0.41568627 606:0.56862745 607:0.90196078 608:0.93333333 609:0.95686275 610:0.56862745 624:0.56078431 625:0.99215686 626:0.68627451 627:0.43921569 628:0.43921569 629:0.77254902 630:0.9254902 631:0.9254902 632:0.97647059 633:0.99215686 634:0.99215686 635:0.99215686 636:0.61568627 637:0.36862745 638:0.043137255 652:0.56078431 653:0.99215686 654:0.99215686 655:0.99215686 656:0.99215686 657:0.99215686 658:0.99215686 659:0.99215686 660:0.99215686 661:0.85490196 662:0.52941176 663:0.1254902 664:0.0078431373 680:0.047058824 681:0.79215686 682:0.99215686 683:0.99215686 684:0.99215686 685:0.89803922 686:0.50588235 687:0.38823529 688:0.019607843 689:0.015686275 
0.96361206420688206 128:0.69019608 129:0.93333333 130:0.37647059 155:0.39215686 156:0.94509804 157:0.99215686 158:0.78431373 159:0.69803922 160:0.81176471 161:0.4627451 162:0.094117647 183:0.7254902 184:0.99215686 185:0.99215686 186:0.99215686 187:0.99607843 188:0.99215686 189:0.99215686 190:0.88627451 191:0.070588235 209:0.20784314 210:0.62352941 211:0.98039216 212:0.99215686 213:0.90588235 214:0.83529412 215:0.8745098 216:0.99215686 217:0.99215686 218:0.92941176 219:0.14117647 236:0.062745098 237:0.61568627 238:0.99607843 239:0.99215686 240:0.99215686 241:0.30980392 243:0.23137255 244:0.99215686 245:0.99215686 246:0.87058824 247:0.054901961 264:0.39215686 265:0.99607843 266:1 267:0.99607843 268:0.60784314 269:0.019607843 271:0.55294118 272:0.99607843 273:0.99607843 274:0.37254902 291:0.2627451 292:0.92156863 293:0.99215686 294:0.99607843 295:0.89411765 296:0.41960784 297:0.77647059 298:0.6745098 299:0.99607843 300:0.99215686 301:0.87058824 302:0.25490196 319:0.36078431 320:0.96862745 321:0.99215686 322:0.83529412 323:0.16470588 325:0.11764706 326:0.64705882 327:0.99607843 328:0.99215686 329:0.87058824 330:0.27843137 348:0.070588235 349:0.074509804 350:0.058823529 353:0.49803922 354:0.94509804 355:0.99607843 356:0.8 357:0.19215686 358:0.0078431373 380:0.12156863 381:0.70980392 382:0.99215686 383:0.75686275 384:0.41568627 407:0.019607843 408:0.61176471 409:0.99607843 410:0.90588235 411:0.14901961 435:0.28627451 436:0.99215686 437:0.98039216 438:0.41568627 460:0.050980392 461:0.30980392 462:0.54117647 463:0.94509804 464:0.99215686 465:0.42745098 483:0.29019608 484:0.83137255 485:0.92156863 486:0.91764706 487:0.91764706 488:0.92941176 489:0.99215686 490:0.99607843 491:0.99215686 492:0.87058824 493:0.13333333 510:0.26666667 511:0.85882353 512:0.99215686 513:0.99607843 514:0.99215686 515:0.99215686 516:0.99215686 517:0.99215686 518:0.99607843 519:0.99215686 520:0.99215686 521:0.45882353 537:0.10980392 538:0.61176471 539:0.99607843 540:0.90588235 541:0.29803922 542:0.19607843 543:0.72941176 544:0.99607843 545:0.90588235 546:0.81960784 547:0.99607843 548:0.99607843 549:0.99607843 550:0.37647059 565:0.63529412 566:0.99215686 567:0.99215686 568:0.93333333 569:0.4627451 570:0.79607843 571:0.99215686 572:0.98039216 573:0.41568627 574:0.035294118 575:0.50980392 576:0.99215686 577:0.99215686 578:0.54901961 592:0.16078431 593:0.94509804 594:0.99215686 595:0.99215686 596:0.99215686 597:0.99607843 598:0.99215686 599:0.89411765 600:0.43529412 603:0.054901961 604:0.89803922 605:0.99215686 606:0.8745098 607:0.26666667 620:0.10588235 621:0.85098039 622:0.99215686 623:0.84705882 624:0.6 625:0.99607843 626:0.68235294 627:0.16862745 631:0.031372549 632:0.80392157 633:0.99215686 634:0.99215686 635:0.23529412 649:0.1372549 650:0.49411765 651:0.10588235 653:0.22745098 654:0.035294118 660:0.16078431 661:0.93333333 662:0.99215686 663:0.23529412 
0.57912226482520224 118:0.22745098 119:0.85098039 120:1 121:0.99607843 122:0.99607843 123:0.68235294 124:0.61960784 125:0.12941176 145:0.015686275 146:0.71372549 147:0.96862745 148:0.70196078 149:0.50196078 150:0.7254902 151:0.88235294 152:0.88235294 153:0.91372549 154:0.5372549 155:0.039215686 173:0.39215686 174:0.99607843 175:0.35686275 181:0.4627451 182:0.92941176 183:0.70196078 184:0.02745098 201:0.49411765 202:0.64313725 203:0.0039215686 210:0.34117647 211:0.92156863 212:0.85098039 213:0.047058824 229:0.25882353 230:0.48235294 239:0.32941176 240:0.95294118 241:0.70588235 242:0.035294118 268:0.21960784 269:0.9254902 270:0.70196078 271:0.031372549 297:0.49411765 298:0.99607843 299:0.31372549 325:0.023529412 326:0.84313725 327:0.63921569 354:0.65882353 355:0.94901961 356:0.15686275 382:0.44705882 383:0.99607843 384:0.57647059 410:0.054901961 411:0.92156863 412:0.59607843 439:0.64705882 440:0.59607843 459:0.078431373 460:0.17254902 461:0.24313725 462:0.5254902 463:0.12156863 467:0.5254902 468:0.80392157 486:0.24705882 487:0.81960784 488:0.96862745 489:0.95686275 490:0.95686275 491:0.93333333 492:0.58431373 493:0.11372549 495:0.5254902 496:0.83137255 514:0.58431373 515:0.69411765 516:0.10196078 518:0.019607843 519:0.3372549 520:0.40392157 521:0.9254902 522:0.41176471 523:0.65882353 524:0.97647059 542:0.58431373 543:0.40392157 549:0.090196078 550:0.81568627 551:0.99607843 552:0.63137255 570:0.57647059 571:0.54117647 578:0.51372549 579:0.99607843 580:0.60392157 581:0.0078431373 598:0.074509804 599:0.45882353 600:0.082352941 605:0.011764706 606:0.74901961 607:0.95294118 608:0.92941176 609:0.67058824 610:0.17254902 627:0.078431373 628:0.57254902 629:0.45882353 630:0.13333333 631:0.13333333 632:0.2 633:0.67058824 634:0.95686275 635:0.30588235 636:0.08627451 637:0.070588235 638:0.054901961 656:0.078431373 657:0.31372549 658:0.63921569 659:0.99607843 660:0.99607843 661:0.98039216 662:0.30196078 
0.21733487343576049 151:0.10196078 152:0.85098039 153:0.89411765 154:0.51372549 155:0.51372549 156:0.13333333 157:0.0078431373 179:0.39215686 180:0.98431373 181:0.99607843 182:0.99607843 183:0.99607843 184:0.99607843 185:0.62352941 186:0.11764706 208:0.39607843 209:0.9254902 210:0.98039216 211:0.99607843 212:0.99607843 213:0.99607843 214:0.67843137 215:0.011764706 238:0.30588235 239:0.54117647 240:0.97647059 241:0.99607843 242:0.99607843 243:0.46666667 244:0.011764706 268:0.45098039 269:0.97647059 270:0.99607843 271:0.99607843 272:0.11764706 288:0.015686275 289:0.45098039 290:0.63529412 291:0.63529412 292:0.63529412 293:0.29019608 294:0.039215686 297:0.73333333 298:0.99607843 299:0.99607843 300:0.43137255 316:0.42352941 317:0.99607843 318:0.99607843 319:0.99607843 320:0.99607843 321:0.99607843 322:0.62745098 323:0.1254902 325:0.26666667 326:0.96862745 327:0.99607843 328:0.6745098 329:0.019607843 343:0.050980392 344:0.75294118 345:0.74117647 346:0.31372549 347:0.63529412 348:0.83921569 349:0.99607843 350:0.99607843 351:0.91372549 352:0.24705882 354:0.83137255 355:0.99607843 356:0.99607843 357:0.094117647 371:0.42352941 372:0.41176471 376:0.15294118 377:0.77647059 378:0.94117647 379:0.99607843 380:0.91372549 381:0.24705882 382:0.59215686 383:0.99607843 384:0.99607843 385:0.094117647 398:0.02745098 399:0.77647059 400:0.76862745 406:0.31764706 407:0.9372549 408:0.99607843 409:0.91372549 410:0.95294118 411:0.99607843 412:0.99607843 413:0.094117647 427:0.17254902 428:0.41960784 435:0.62745098 436:0.99607843 437:0.99607843 438:0.99607843 439:0.99607843 440:0.56862745 441:0.023529412 455:0.29803922 456:0.70588235 463:0.058823529 464:0.44705882 465:0.99607843 466:0.99607843 467:0.99607843 468:0.11764706 483:0.015686275 484:0.64705882 485:0.74509804 486:0.2745098 492:0.29411765 493:0.99607843 494:0.99607843 495:0.99607843 496:0.11764706 512:0.14901961 513:0.86666667 514:0.97254902 515:0.50588235 516:0.34509804 517:0.10196078 518:0.08627451 519:0.47843137 520:0.87843137 521:0.99607843 522:0.99607843 523:0.99607843 524:0.5254902 541:0.38823529 542:0.8627451 543:0.99607843 544:0.99607843 545:0.89803922 546:0.89019608 547:0.99607843 548:0.99607843 549:0.88235294 550:0.75686275 551:0.99607843 552:0.94117647 553:0.082352941 570:0.14901961 571:0.60392157 572:0.8745098 573:0.99607843 574:0.90196078 575:0.47843137 576:0.11764706 577:0.082352941 578:0.21176471 579:0.94117647 580:0.99607843 581:0.5254902 600:0.066666667 601:0.094117647 602:0.070588235 607:0.41568627 608:1 609:0.58039216 635:0.02745098 636:0.89019608 637:0.76470588 638:0.031372549 664:0.039215686 665:0.68235294 666:0.29803922 693:0.41960784 694:0.98823529 695:0.047058824 
0.090951271237509485 128:0.050980392 129:0.44313725 130:1 131:0.99215686 132:0.56078431 133:0.39607843 154:0.11372549 155:0.33333333 156:0.70980392 157:0.98823529 158:0.99215686 159:0.98823529 160:0.98823529 161:0.97647059 162:0.39215686 181:0.22352941 182:0.78431373 183:0.98823529 184:0.98823529 185:0.98823529 186:0.99215686 187:0.98823529 188:0.98823529 189:0.98823529 190:0.43921569 208:0.062745098 209:0.99215686 210:0.98823529 211:0.98823529 212:0.98823529 213:0.98823529 214:0.92941176 215:0.98823529 216:0.98823529 217:0.85098039 218:0.14509804 236:0.54901961 237:0.99215686 238:0.98823529 239:0.98823529 240:0.61568627 241:0.43921569 242:0.74901961 243:0.98823529 244:0.98823529 245:0.32941176 265:0.75294118 266:0.84313725 267:0.43137255 269:0.24705882 270:1 271:0.99215686 272:0.89411765 273:0.18431373 293:0.047058824 294:0.070588235 296:0.59215686 297:0.94117647 298:0.99215686 299:0.8745098 300:0.20392157 322:0.074509804 323:0.34509804 324:0.91764706 325:0.98823529 326:0.99215686 327:0.22745098 350:0.39607843 351:0.98823529 352:0.98823529 353:0.98823529 354:0.32941176 355:0.035294118 377:0.55294118 378:0.94117647 379:0.98823529 380:0.98823529 381:0.67843137 404:0.24705882 405:1 406:0.99215686 407:0.99215686 408:0.63529412 431:0.59215686 432:0.94117647 433:0.99215686 434:0.98823529 435:0.98823529 436:0.32941176 457:0.074509804 458:0.65098039 459:0.91764706 460:0.98823529 461:0.99215686 462:0.98823529 463:0.98823529 464:0.84313725 465:0.77254902 466:0.1254902 483:0.062745098 484:0.6627451 485:0.76862745 486:0.98823529 487:0.98823529 488:0.98823529 489:0.99215686 490:0.98823529 491:0.98823529 492:0.98823529 493:0.98823529 494:0.84705882 495:0.47843137 496:0.02745098 510:0.37254902 511:0.79607843 512:0.99215686 513:0.98823529 514:0.98823529 515:0.98823529 516:0.98823529 517:0.43921569 518:0.43921569 519:0.86666667 520:0.98823529 521:0.98823529 522:0.99215686 523:0.98823529 524:0.64705882 525:0.18431373 537:0.10196078 538:0.81176471 539:0.99215686 540:1 541:0.99215686 542:0.99215686 543:0.63529412 548:0.37254902 549:0.79607843 550:1 551:0.99215686 552:0.99215686 553:0.32941176 564:0.48235294 565:0.90588235 566:0.98823529 567:0.98823529 568:0.99215686 569:0.8745098 570:0.22745098 571:0.035294118 577:0.058823529 578:0.99215686 579:0.98823529 580:0.98823529 581:0.32941176 591:0.22352941 592:0.90588235 593:0.98823529 594:0.98823529 595:0.8627451 596:0.52156863 597:0.14509804 606:0.87058824 607:0.98823529 608:0.98823529 609:0.75686275 619:0.99215686 620:0.98823529 621:0.98823529 622:0.85098039 623:0.14509804 634:0.14901961 635:0.91764706 636:0.98823529 637:0.8745098 647:0.43921569 648:0.74117647 649:0.43921569 650:0.14509804 663:0.88235294 664:0.98823529 665:0.56862745 
0.30299355694233349 128:0.18431373 129:0.3254902 130:0.60784314 131:0.88235294 132:0.99607843 133:0.99607843 134:0.36078431 153:0.08627451 154:0.43921569 155:0.81960784 156:0.96862745 157:0.99215686 158:0.99215686 159:0.99215686 160:0.99215686 161:0.99215686 162:0.96470588 163:0.17647059 181:0.19607843 182:0.99215686 183:0.99215686 184:0.98039216 185:0.7372549 186:0.39607843 187:0.34901961 188:0.69019608 189:0.99215686 190:0.87843137 191:0.074509804 209:0.02745098 210:0.45098039 211:0.52156863 212:0.18823529 216:0.5254902 217:0.99215686 218:0.81568627 244:0.64313725 245:0.99215686 246:0.70196078 271:0.16078431 272:0.95686275 273:0.99215686 274:0.22745098 298:0.035294118 299:0.69411765 300:0.99215686 301:0.8745098 302:0.023529412 325:0.10588235 326:0.70196078 327:0.99215686 328:0.97254902 329:0.38823529 352:0.023529412 353:0.78823529 354:0.99215686 355:0.99215686 356:0.41176471 373:0.10196078 374:0.19607843 375:0.41568627 376:0.44313725 377:0.58039216 378:0.58431373 379:0.58431373 380:0.91764706 381:0.99215686 382:0.97647059 383:0.4 384:0.0039215686 398:0.015686275 399:0.39215686 400:0.8 401:0.90196078 402:0.99215686 403:0.99215686 404:0.99215686 405:0.99215686 406:0.99215686 407:0.99215686 408:0.99215686 409:0.99215686 410:0.89803922 411:0.0078431373 425:0.36470588 426:0.86666667 427:0.99215686 428:0.99215686 429:0.99215686 430:0.82352941 431:0.79607843 432:0.99215686 433:0.99215686 434:0.99215686 435:0.99215686 436:0.90196078 437:0.99215686 438:0.99215686 439:0.29019608 452:0.51372549 453:0.96862745 454:0.99215686 455:0.9372549 456:0.54117647 457:0.29019608 458:0.49411765 459:0.84313725 460:0.99215686 461:0.98431373 462:0.92941176 463:0.30196078 464:0.14509804 465:0.99215686 466:0.99215686 467:0.61960784 480:0.60392157 481:0.99215686 482:0.99215686 483:0.52941176 484:0.6627451 485:0.96470588 486:0.99215686 487:0.99215686 488:0.89019608 489:0.42745098 492:0.32156863 493:0.99215686 494:0.99215686 495:0.57254902 508:0.60784314 509:0.99215686 510:0.99215686 511:0.99215686 512:0.99215686 513:0.90588235 514:0.61176471 515:0.29019608 516:0.074509804 520:0.49019608 521:0.99215686 522:0.99607843 523:0.29019608 536:0.41960784 537:0.67843137 538:0.67843137 539:0.65098039 540:0.29019608 541:0.02745098 548:0.83921569 549:0.99215686 550:0.96470588 551:0.2 576:0.83921569 577:0.99215686 578:0.68627451 603:0.17647059 604:0.95686275 605:0.99215686 606:0.50196078 630:0.011764706 631:0.82352941 632:0.99215686 633:0.94509804 634:0.41960784 658:0.0078431373 659:0.54901961 660:0.99215686 661:0.41568627 
0.13972798823317586 149:0.18039216 150:0.61176471 151:0.61176471 152:0.72941176 153:0.99607843 154:0.69803922 155:0.61176471 156:0.29019608 157:0.070588235 176:0.63137255 177:0.95686275 178:0.99607843 179:0.9254902 180:0.91372549 181:0.91372549 182:0.94509804 183:0.99607843 184:0.99215686 185:0.76862745 186:0.066666667 203:0.21568627 204:0.96862745 205:0.60392157 206:0.30588235 207:0.047058824 210:0.11764706 211:0.39607843 212:0.94509804 213:0.99215686 214:0.57254902 231:0.023529412 232:0.13333333 233:0.10588235 240:0.27058824 241:0.94509804 242:0.98039216 243:0.21176471 269:0.68627451 270:0.99215686 271:0.22745098 296:0.019607843 297:0.76078431 298:0.99607843 299:0.22745098 324:0.10980392 325:0.99215686 326:0.89019608 327:0.12156863 352:0.7254902 353:0.99215686 354:0.45882353 379:0.039215686 380:0.8627451 381:0.94117647 382:0.090196078 407:0.38039216 408:0.99215686 409:0.5372549 434:0.090196078 435:1 436:0.97647059 437:0.23529412 461:0.015686275 462:0.57647059 463:0.99607843 464:0.41568627 489:0.2745098 490:0.99215686 491:0.92156863 492:0.10588235 516:0.16862745 517:0.92941176 518:0.99215686 519:0.20784314 544:0.6 545:0.99215686 546:0.54509804 571:0.31372549 572:0.99607843 573:0.75294118 599:0.63529412 600:0.84705882 601:0.098039216 607:0.031372549 608:0.16862745 609:0.42745098 626:0.16078431 627:0.94509804 628:0.68235294 633:0.21568627 634:0.50980392 635:0.80392157 636:0.99607843 637:0.67843137 654:0.19607843 655:0.96862745 656:0.96862745 657:0.56078431 658:0.53333333 659:0.62352941 660:0.91764706 661:0.96862745 662:0.90588235 663:0.54117647 664:0.074509804 665:0.011764706 683:0.37254902 684:0.8745098 685:0.99215686 686:0.99215686 687:0.99607843 688:0.66666667 689:0.34509804 690:0.10588235 
0.70050754091650524 120:0.39215686 121:0.4627451 122:0.82745098 123:0.65490196 147:0.55686275 148:0.98431373 149:0.99607843 150:0.99607843 151:0.99215686 152:0.64313725 153:0.011764706 175:0.92156863 176:0.99607843 177:0.77254902 178:0.90196078 179:0.99607843 180:0.99607843 181:0.48235294 203:0.22352941 204:0.23921569 205:0.058823529 206:0.23921569 207:0.90980392 208:0.99607843 209:0.65882353 210:0.023529412 235:0.23137255 236:0.99607843 237:0.99607843 238:0.51764706 239:0.02745098 263:0.023529412 264:0.70980392 265:0.99607843 266:0.99607843 267:0.18823529 292:0.51372549 293:0.99607843 294:0.99607843 295:0.18823529 320:0.011764706 321:0.97647059 322:0.99607843 323:0.83137255 324:0.11764706 349:0.49411765 350:0.99607843 351:0.99607843 352:0.26666667 377:0.43529412 378:0.99607843 379:0.99607843 380:0.70588235 403:0.011764706 404:0.19215686 405:0.4627451 406:0.97647059 407:0.99607843 408:0.80784314 431:0.11372549 432:0.99607843 433:0.84705882 434:0.96078431 435:1 436:0.45882353 459:0.29019608 460:0.99607843 461:0.99607843 462:0.99607843 463:0.99607843 464:0.28235294 487:0.031372549 488:0.76078431 489:0.99607843 490:0.99607843 491:0.99607843 492:0.90196078 493:0.43921569 516:0.02745098 517:0.58039216 518:0.59215686 519:0.92156863 520:0.99607843 521:0.99215686 522:0.62745098 547:0.10980392 548:0.58823529 549:1 550:0.99607843 551:0.86666667 552:0.22352941 576:0.043137255 577:0.56470588 578:0.89411765 579:0.99607843 580:0.90980392 581:0.52941176 583:0.17647059 584:0.094117647 606:0.18431373 607:0.83529412 608:0.98823529 609:0.90196078 610:0.70588235 611:0.61568627 612:0.75686275 636:0.57647059 637:0.94117647 638:0.99607843 639:0.99607843 640:0.91764706 665:0.32941176 666:0.99607843 667:0.99607843 668:0.61960784 
0.2213967041016818 123:0.34901961 124:0.94117647 125:0.99607843 126:1 127:0.71764706 128:0.16470588 150:0.44313725 151:0.98431373 152:0.99607843 153:0.99607843 154:0.99607843 155:0.99607843 156:0.94509804 157:0.35686275 177:0.50196078 178:0.99215686 179:0.99607843 180:0.85882353 181:0.47058824 182:0.46666667 183:0.7372549 184:0.99607843 185:0.9254902 186:0.19607843 204:0.015686275 205:0.83921569 206:0.99607843 207:0.49411765 208:0.0078431373 211:0.0039215686 212:0.37254902 213:0.99607843 214:0.79607843 215:0.023529412 232:0.17647059 233:0.99607843 234:0.58431373 235:0.011764706 240:0.015686275 241:0.61176471 242:0.99607843 243:0.24313725 260:0.35686275 261:0.99607843 262:0.14509804 269:0.16470588 270:0.9372549 271:0.66666667 288:0.078431373 289:0.75294118 290:0.0039215686 298:0.50196078 299:0.9254902 300:0.066666667 317:0.63921569 318:0.18039216 326:0.24313725 327:0.99215686 328:0.14901961 345:0.11764706 346:0.1372549 354:0.11372549 355:0.96862745 356:0.14901961 381:0.047058824 382:0.14901961 383:0.95294118 384:0.2627451 405:0.0078431373 406:0.13333333 407:0.52941176 408:0.69803922 409:0.90196078 410:0.99607843 411:0.99607843 412:0.91764706 413:0.8627451 414:0.68235294 415:0.51372549 416:0.38823529 417:0.050980392 431:0.19607843 432:0.50196078 433:0.8 434:0.99607843 435:0.99607843 436:0.99607843 437:0.99607843 438:0.99607843 439:0.99607843 440:0.99607843 441:0.99607843 442:0.99607843 443:0.99607843 444:0.99607843 445:0.83529412 456:0.047058824 457:0.27058824 458:0.78823529 459:0.98823529 460:0.99607843 461:0.99607843 462:0.99607843 463:0.89803922 464:0.68235294 465:0.50980392 466:0.65490196 467:0.99607843 468:0.42745098 469:0.32941176 470:0.58039216 471:0.75294118 472:0.99607843 473:0.99215686 474:0.16862745 483:0.18823529 484:0.8 485:0.99607843 486:0.99607843 487:0.99607843 488:0.90588235 489:0.57647059 490:0.25882353 491:0.035294118 494:0.49411765 495:0.99607843 496:0.14901961 499:0.0039215686 500:0.32941176 501:0.64313725 502:0.02745098 511:0.45490196 512:0.99607843 513:0.99607843 514:0.96078431 515:0.67843137 516:0.050980392 521:0.011764706 522:0.74509804 523:0.90196078 524:0.039215686 539:0.45490196 540:0.99607843 541:0.76078431 542:0.1372549 549:0.40392157 550:0.99607843 551:0.6627451 567:0.37647059 568:0.99607843 569:0.49803922 570:0.011764706 576:0.16470588 577:0.89411765 578:0.99215686 579:0.17254902 595:0.047058824 596:0.54117647 597:0.99607843 598:0.88235294 599:0.56862745 600:0.4 601:0.19215686 602:0.28235294 603:0.52941176 604:0.98431373 605:0.99607843 606:0.52156863 624:0.0078431373 625:0.29803922 626:0.67058824 627:0.95686275 628:0.99607843 629:0.99607843 630:0.99607843 631:0.99607843 632:0.99607843 633:0.85490196 634:0.019607843 655:0.12941176 656:0.45098039 657:0.75686275 658:0.92156863 659:0.85490196 660:0.60784314 661:0.15686275 
0.066841595551449931 152:0.12156863 153:0.70196078 154:0.99607843 155:1 156:0.59607843 157:0.28627451 158:0.011764706 179:0.2 180:0.91764706 181:0.99215686 182:0.99215686 183:0.99215686 184:0.99215686 185:0.99215686 186:0.37647059 207:0.85882353 208:0.99215686 209:0.99215686 210:0.99215686 211:0.99215686 212:0.99215686 213:0.99215686 214:0.9254902 215:0.21568627 235:0.8745098 236:0.99215686 237:0.99215686 238:0.99215686 239:0.99215686 240:0.99215686 241:0.99215686 242:0.99215686 243:0.68627451 263:0.45490196 264:0.89019608 265:0.89019608 266:0.89019608 267:0.89019608 268:0.3254902 269:0.87058824 270:0.99215686 271:0.68627451 297:0.75294118 298:0.99215686 299:0.68627451 323:0.02745098 324:0.10588235 325:0.86666667 326:0.99215686 327:0.68627451 343:0.1372549 344:0.066666667 346:0.17254902 347:0.60392157 348:0.65098039 349:0.64313725 350:0.49803922 351:0.78431373 352:0.85490196 353:0.99215686 354:0.99215686 355:0.68627451 371:0.54901961 372:0.87843137 373:0.83529412 374:0.94509804 375:0.99215686 376:0.99215686 377:0.99215686 378:0.99215686 379:0.99215686 380:0.99215686 381:0.99215686 382:0.99215686 383:0.34117647 398:0.078431373 399:0.80784314 400:0.99215686 401:0.99215686 402:0.99215686 403:0.99215686 404:0.99215686 405:0.99215686 406:0.99215686 407:0.99215686 408:0.99215686 409:0.99215686 410:0.87058824 426:0.36862745 427:0.99215686 428:0.99215686 429:0.99215686 430:0.99215686 431:0.99215686 432:0.99215686 433:0.99215686 434:0.99215686 435:0.99215686 436:0.99215686 437:0.99215686 438:0.96862745 439:0.22745098 454:0.36862745 455:0.99215686 456:0.99215686 457:0.99215686 458:0.99215686 459:0.99215686 460:0.99215686 461:0.99215686 462:0.99215686 463:0.99215686 464:0.99215686 465:0.99215686 466:0.99215686 467:0.51372549 482:0.24313725 483:0.98039216 484:0.99215686 485:0.99215686 486:0.99215686 487:0.99215686 488:0.99215686 489:0.85098039 490:0.99215686 491:0.99215686 492:0.99215686 493:0.99215686 494:0.99215686 495:0.68627451 511:0.67058824 512:0.87058824 513:0.87058824 514:0.87058824 515:0.49019608 516:0.058823529 517:0.035294118 518:0.058823529 519:0.058823529 520:0.45882353 521:0.81568627 522:0.99215686 523:0.68627451 549:0.24313725 550:0.97647059 551:0.78039216 552:0.031372549 578:0.90196078 579:0.99215686 580:0.33333333 581:0.16470588 582:0.49019608 583:0.18039216 606:0.52941176 607:0.99215686 608:0.96862745 609:0.89019608 610:0.99215686 611:0.36470588 634:0.1254902 635:0.86666667 636:0.99215686 637:0.99215686 638:0.99215686 639:0.36470588 663:0.45882353 664:0.99215686 665:0.99215686 666:0.98431373 667:0.28235294 691:0.058823529 692:0.58039216 693:0.99215686 694:0.61960784 
0.14144779964609205 186:0.1254902 187:0.50980392 188:0.67058824 189:0.67058824 190:0.2745098 191:0.015686275 213:0.29803922 214:0.89019608 215:0.99215686 216:0.99215686 217:0.99215686 218:0.99215686 219:0.41568627 239:0.29411765 240:0.55294118 241:0.98823529 242:0.99215686 243:0.99215686 244:0.99215686 245:0.99215686 246:0.99215686 247:0.52941176 265:0.29411765 266:0.55686275 267:0.97647059 268:0.99215686 269:0.99215686 270:0.99215686 271:0.71764706 272:0.87843137 273:0.99215686 274:0.99215686 275:0.52941176 290:0.0039215686 291:0.28627451 292:0.78039216 293:0.98039216 294:0.99215686 295:0.99215686 296:0.98431373 297:0.72941176 298:0.45490196 299:0.42352941 300:0.98039216 301:0.99215686 302:0.97254902 303:0.08627451 318:0.023529412 319:0.99215686 320:0.99215686 321:0.97254902 322:0.90196078 323:0.7254902 324:0.24313725 326:0.011764706 327:0.68235294 328:0.99215686 329:0.96470588 330:0.1254902 346:0.011764706 347:0.62745098 348:0.5372549 349:0.28235294 353:0.18431373 354:0.67058824 355:0.99215686 356:0.95294118 357:0.55686275 379:0.090196078 380:0.43921569 381:0.98823529 382:0.99215686 383:0.94901961 384:0.56470588 406:0.23529412 407:0.77647059 408:0.99215686 409:0.99215686 410:0.95686275 411:0.34901961 430:0.011764706 431:0.37254902 432:0.45098039 433:0.83529412 434:0.95686275 435:0.99215686 436:0.99215686 437:0.78039216 438:0.14117647 455:0.33333333 456:0.65882353 457:0.63529412 458:0.90588235 459:0.99215686 460:0.99215686 461:0.99215686 462:0.99215686 463:0.99215686 464:0.79607843 465:0.054901961 480:0.058823529 481:0.50980392 482:0.82352941 483:0.98823529 484:0.95686275 485:0.98823529 486:0.99215686 487:0.99215686 488:0.99215686 489:0.99215686 490:0.99215686 491:0.99215686 492:0.78039216 493:0.031372549 499:0.023529412 508:0.80392157 509:0.99215686 510:0.99215686 511:0.99215686 512:0.65490196 513:0.94509804 514:0.99215686 515:0.99215686 516:0.92156863 517:0.55294118 518:0.55294118 519:0.97647059 520:0.99215686 521:0.76078431 522:0.11764706 523:0.42352941 524:0.58039216 525:0.58039216 526:0.35294118 527:0.19607843 536:1 537:0.99215686 538:0.99215686 539:0.99215686 540:0.99215686 541:0.99215686 542:0.90196078 543:0.54509804 544:0.12941176 547:0.74901961 548:0.99215686 549:0.99215686 550:0.99215686 551:0.99215686 552:0.99215686 553:0.99215686 554:0.29803922 564:0.87843137 565:0.99215686 566:0.99215686 567:0.92156863 568:0.57647059 569:0.2745098 570:0.14117647 575:0.10588235 576:0.81176471 577:0.99215686 578:0.99215686 579:0.82745098 580:0.61960784 581:0.2745098 582:0.039215686 592:0.11372549 593:0.20784314 594:0.20784314 595:0.14901961 604:0.094117647 605:0.20784314 606:0.20784314 607:0.074509804 
